tree
version=v4
num_class=1
num_tree_per_iteration=1
label_index=0
max_feature_idx=12
objective=poisson
feature_names=Column_0 Column_1 Column_2 Column_3 Column_4 Column_5 Column_6 Column_7 Column_8 Column_9 Column_10 Column_11 Column_12
feature_infos=[0:6] [0:1] [1:12] [1:31] [0:1] [0:205] [0:205] [0:61] [9.254974548819991:100] [0.29999999999999999:1] [0:1] [0:0.8571428571428571] [0.25:0.76249999999999996]
tree_sizes=3392 3373 3392 3377 3388 3423 3432 3452 3487 3443 3466 3457 3469 3463 3449 3474 3459 3465 3485 3485 3482 3509 3511 3497 3502 3513 3488 3499 3486 3474 3464 3495 3511 3515 3494 3495 3522 3473 3487 3459 3504 3494 3529 3492 3530 3515 3485 3550 3522 3529 3529 3556 3518 3501 3494 3512 3521 3512 3513 3478 3538 3497 3509 3537 3537 3538 3558 3545 3491 3535 3484 3489 3514 3497 3554 3530 3507 3547 3522 3529 3557 3524 3514 3520 3516 3528 3525 3532 3527 3523 3513 3543 3515 3538 3498 3506 3494 3497 3463 3516 3488 3510 3485 3493 3527 3504 3492 3481 3530 3499 3526 3498 3534 3463 3459 3503 3534 3484 3529 3513 3506 3511 3509 3500 3502 3488 3518 3542 3487 3495 3517 3486 3493 3479 3456 3491 3509 3523 3455 3481 3493 3491 3460 3473 3500 3510 3499 3471 3452 3476 3492 3501 3453 3488 3490 3473 3484 3493 3507 3463 3477 3491 3503 3455 3472 3473 3459 3514 3434 3454 3503 3500 3471 3494 3481 3436 3496 3489 3424 3448 3482 3469 3503 3489 3500 3437 3532 3501 3468 3476 3503 3490 3503 3467 3547 3462 3513 3500 3459 3459 3482 3487 3451 3479 3474 3464 3525 3455 3459 3473 3450 3483 3456 3473 3492 3465 3471 3473 3479 3419 3492 3470 3461 3467 3450 3530 3473 3461 3482 3479 3433 3457 3493 3485 3467 3472 3505 3481 3444 3482 3525 3484 3454 3504 3485 3456 3493 3482 3476 3446 3473 3459 3482 3463 3474 3456 3426 3477 3482 3438 3464 3494 3447 3485 3454 3491 3460 3454 3501 3494 3457 3500 3460 3480 3491 3504 3447 3440 3470 3467 3459 3484 3473 3458 3474 3452 3469 3424 3478 3501 3482 3491 3437 3437 3439 3427 3488 3446 3465 3458 3491 3477 3513 3463 3440 3494 3501 3464 3469 3449 3447 3442 3441 3445 3453 3474 3469 3490 3444 3455 3518 3461 3473 3450 3461 3446 3455 3452 3458 3435 3453 3457 3438 3445 3446 3479 3465 3441 3450 3482 3442 3485 3457 3502 3482 3479 3481 3500 3479 3445 3509 3467 3484 3458 3482 3472 3454 3505 3460 3454 3422 3434 3476 3469 3451 3464 3442 3450 3516 3478 3450 3451 3470 3449 3439 3452 3462 3471 3446 3458 3469 3463 3445 3467 3458 3445 3469 3455 3498 3443 3451 3456 3487 3491 3472 3457 3451 3477 3469 3447

Tree=0
num_leaves=31
num_cat=0
split_feature=7 7 7 7 5 7 7 5 7 6 6 5 12 2 12 5 11 11 11 3 7 12 7 5 7 11 11 11 5 3
split_gain=218050 40123.7 35581.2 7756.09 6601.83 6109.83 4931.03 4067.76 2869.8 2867.61 2834.9 2248.45 2051.85 1976 1899.32 1748.41 1559.27 1511.61 1241.09 1440.1 1217.68 1194.8 1159.71 1077.26 1123.55 1024.53 970.493 948.871 881.244 827.802
threshold=6.154761904761906 2.2261904761904767 16.500000000000004 0.84523809523809534 8.5000000000000018 27.500000000000004 4.4642857142857153 15.500000000000002 8.7738095238095255 3.5000000000000004 1.0000000180025095e-35 1.0000000180025095e-35 0.29534632034632041 2.5000000000000004 0.39943181818181822 1.0000000180025095e-35 0.67313915857605189 0.63426836568887379 0.21174573725594137 28.500000000000004 0.15476190476190479 0.29534632034632041 34.214285714285722 1.0000000180025095e-35 9.309523809523812 0.11592523941921534 0.23112535612535615 0.13337825696316266 1.5000000000000002 6.5000000000000009
decision_type=2 2 2 2 2 2 2 2 2 2 2 2 2 2 2 2 2 2 2 2 2 2 2 2 2 2 2 2 2 2
left_child=1 3 4 20 9 7 11 10 17 23 -4 -3 -12 22 18 -8 26 -6 -11 21 -1 -20 -7 -2 -25 -5 -9 -13 -27 -14
right_child=2 6 5 25 8 13 15 16 -10 14 12 27 29 -15 -16 -17 -18 -19 19 -21 -22 -23 -24 24 -26 28 -28 -29 -30 -31
leaf_value=-0.098271558491680247 -0.0071852896625595741 -0.058446603422079718 0.01547961565955587 -0.086085015557652661 0.092053003521375729 0.74517888752226236 -0.027868873361754351 0.26385096686280407 0.19322002519101711 0.056323909172563594 0.49024290921922337 -0.05362034783030295 0.41089250734923161 0.37557577701879585 0.054360847358666461 0.027807981961792488 0.63487348495752016 0.3533700594532177 0.062821219331644404 0.33866281169599943 -0.091211117590881879 0.17189038612134289 0.51507736432779017 0.026287289118728491 0.12531867725864537 -0.076296790382121726 0.40931921904379642 -0.019494523802104605 -0.059845230938401467 0.20612914566458751
leaf_weight=195777.19175541401 1191.6920964717865 10959.112363815308 135.50392997264862 18177.945016741753 1445.9939924478531 109.51687490940094 2175.4877524375916 157.77854859828949 2026.9902949333191 402.79935348033905 89.098474502563477 2613.5552520751953 55.686546564102173 116.94174778461456 1340.189553976059 4007.575134396553 61.25520122051239 57.542764782905579 347.11280691623688 100.23578381538391 88751.36169564724 907.69070899486542 109.51687490940094 877.99121749401093 425.07397210597992 30002.055070519447 419.5053174495697 9232.8294203281403 11170.721240758896 434.35506319999695
leaf_count=105471 642 5904 73 9793 779 59 1172 85 1092 217 48 1408 30 63 722 2159 33 31 187 54 47813 489 59 473 229 16163 226 4974 6018 234
internal_value=-0.0814588 -0.0878775 0.139891 -0.0926397 0.100863 0.350685 -0.0313861 0.303302 0.154395 0.0670692 0.221358 -0.0421237 0.269528 0.541527 0.0991975 0.00821829 0.395013 0.102054 0.133381 0.156287 -0.0960692 0.141719 0.630128 0.0271718 0.0585924 -0.0761983 0.369561 -0.0270234 -0.0718333 0.229398
internal_weight=383680 372868 10812.5 343879 9123.31 1689.16 28988.6 1353.18 3530.53 5592.79 714.644 22805.5 579.14 335.975 3098.03 6183.06 638.539 1503.54 1757.84 1355.04 284529 1254.8 219.034 2494.76 1303.07 59350.7 577.284 11846.4 41172.8 490.042
internal_count=206700 200875 5825 185258 4915 910 15617 729 1902 3013 385 12286 312 181 1669 3331 344 810 947 730 153284 676 118 1344 702 31974 311 6382 22181 264
is_linear=0
shrinkage=1


Tree=1
num_leaves=31
num_cat=0
split_feature=7 7 7 7 7 7 5 8 5 8 8 5 8 8 12 7 12 5 6 6 11 12 5 8 8 5 6 1 11 7
split_gain=169980 23806.8 23098.6 5754.3 3754.4 3392.75 2295.52 1966.58 1720.06 1644.27 1492.4 1476.41 1321.85 1292.93 1268.76 1137.21 1045.36 903.146 902.428 888.252 852.96 1506.98 823.941 810.845 806.593 767.988 741.828 1455.66 1191.17 809.756
threshold=4.6190476190476195 1.4642857142857146 13.61904761904762 8.071428571428573 0.46428571428571436 2.6904761904761911 12.500000000000002 98.295542187258988 1.0000000180025095e-35 96.506247107820471 91.400586148388115 4.5000000000000009 99.321301866419887 86.233225358630293 0.27216631805076608 25.214285714285719 0.35836021505376348 8.5000000000000018 1.5000000000000002 25.500000000000004 0.26857257097161141 0.27216631805076608 2.5000000000000004 96.992133271633534 99.321301866419887 25.500000000000004 6.5000000000000009 1.0000000180025095e-35 0.2997524752475248 11.154761904761907
decision_type=2 2 2 2 2 2 2 2 2 2 2 2 2 2 2 2 2 2 2 2 2 2 2 2 2 2 2 2 2 2
left_child=1 4 3 7 23 10 20 11 -7 25 -3 18 -10 -6 17 -8 -17 -11 -2 -9 22 -22 -4 -1 -12 -5 -16 -28 29 -29
right_child=2 5 6 9 13 8 15 19 12 14 24 -13 -14 -15 26 16 -18 -19 -20 -21 21 -23 -24 -25 -26 -27 27 28 -30 -31
leaf_value=-0.01593878410408232 0.041106493428694948 0.0073751238396635296 0.11761196692326732 0.11925813271398833 -0.0066106370292144841 0.026400892499317166 0.26445502957283828 0.13346144927027848 0.055048173050432317 0.062041327890341814 0.028970993858249264 0.10795355541568699 0.16282770095120344 0.0083428695881600391 0.1701352254129751 0.38711597751041349 0.23931629336542506 0.19725954257348768 0.084797044145088679 0.29326624776737248 0.079450313715068763 0.26688232621274871 0.21810770700444412 0.00083927978675318339 0.10117371067862282 0.2132787265586038 0.18941630337874235 0.49499279203351398 0.22130873569774101 0.28169981829398977
leaf_weight=240301.95241940022 2092.9462691545486 18101.569969773293 369.62611782550812 2322.8957067728043 52638.431257486343 7567.8081070184708 1523.2420423030853 1701.3000477552414 9137.1232872009277 330.95204067230225 8721.1476352214813 3650.6981816291809 293.62086153030396 19927.870482802391 1204.8347806930542 429.54738330841064 165.81766486167908 196.99326586723328 2715.1329127550125 91.639142274856567 123.22642731666565 826.67266666889191 455.05629897117615 7423.4827157258987 404.75234472751617 239.59716320037842 854.86015272140503 100.13041830062866 192.3717577457428 80.090280294418335
leaf_count=131446 1044 9629 155 1040 28440 3980 555 807 4647 158 4609 1724 148 10727 530 126 50 81 1312 42 49 322 183 4061 214 100 362 43 82 34
internal_value=-3.2643e-05 -0.00775794 0.143147 0.116228 -0.0125061 0.0266291 0.252219 0.094063 0.044156 0.157372 0.0156868 0.0839808 0.0584038 -0.00250416 0.182756 0.287357 0.345952 0.112496 0.0657786 0.141629 0.210268 0.242568 0.173065 -0.015436 0.0321733 0.128049 0.198006 0.225364 0.30784 0.400205
internal_weight=384185 364518 19667.6 15774.4 320292 44226 3893.19 10251.7 16998.6 5522.73 27227.5 8458.78 9430.74 72566.3 2960.23 2118.61 595.365 527.945 4808.08 1792.94 1774.58 949.899 824.682 247725 9125.9 2562.49 2432.29 1227.45 372.592 180.221
internal_count=206700 197901 8799 7359 174674 23227 1440 4929 8775 2430 14452 4080 4795 39167 1290 731 176 239 2356 849 709 371 338 135507 4823 1140 1051 521 159 77
is_linear=0
shrinkage=0.05


Tree=2
num_leaves=31
num_cat=0
split_feature=7 7 7 7 7 8 7 6 8 5 6 8 5 5 8 7 5 3 3 3 12 12 12 12 5 3 8 8 8 7
split_gain=140630 21540.4 13416.2 3178.94 3155.58 2320.96 2267.8 1705.18 1411.57 1406.31 1401.77 1356.15 1196.06 1082.06 973.443 899.974 896.391 886.336 706.314 690.658 715.75 893.496 787.628 846.092 677.513 676.073 641.496 620.99 637.935 533.797
threshold=4.4642857142857153 1.3809523809523812 10.071428571428573 2.6904761904761911 0.30952380952380959 98.295542187258988 17.309523809523814 1.0000000180025095e-35 91.400586148388115 10.500000000000002 1.0000000180025095e-35 86.233225358630293 1.0000000180025095e-35 1.0000000180025095e-35 99.321301866419887 6.4642857142857153 1.0000000180025095e-35 17.500000000000004 12.500000000000002 27.500000000000004 0.36054813915857609 0.27216631805076608 0.28470345345345355 0.33133928571428578 1.5000000000000002 8.5000000000000018 96.992133271633534 99.321301866419887 99.745488199907456 25.785714285714288
decision_type=2 2 2 2 2 2 2 2 2 2 2 2 2 2 2 2 2 2 2 2 2 2 2 2 2 2 2 2 2 2
left_child=1 4 5 8 26 7 13 16 24 -7 17 -6 -5 -4 -14 -9 -2 18 -8 20 21 -12 29 -24 -3 -15 -1 -10 -29 -23
right_child=2 3 6 12 11 9 10 15 27 -11 19 -13 14 25 -16 -17 -18 -19 -20 -21 -22 22 23 -25 -26 -27 -28 28 -30 -31
leaf_value=-0.01636546650683517 0.025343663300708769 0.00041237115297054798 0.1021798505661638 0.025285574375850668 -0.0083408598498597736 0.10816019473056011 0.1197353325293509 0.078599412518518708 0.025815254295674436 0.18362132869806563 0.13518571952788203 0.0058064134520287624 0.0490499276579143 0.19593647633369365 0.13893171673820245 0.11232338417848764 0.073087809638202203 0.019401469863252575 0.26059983070720294 0.1383047392538905 0.19404934807962504 0.40136640884813257 0.1842285369019151 0.28579826325949731 0.019086434025848954 0.14923863119238553 -0.00068667393117518389 0.18075685243410899 0.05019491483384754 0.278701829482774
leaf_weight=214295.04344213009 1613.4198861122131 15090.14700627327 986.14968967437744 7494.7861250638962 67247.254830121994 2217.8449332714081 262.85826921463013 4326.1695849895477 10315.035252451897 855.59842705726624 148.73607063293457 22643.532977104187 9203.5386078357697 1014.1972122192383 311.42949819564819 3645.208487033844 2516.4150400161743 135.65228176116943 134.53428721427917 240.29324960708618 945.72967433929443 142.18821024894714 389.84433460235596 432.51156878471375 7162.5866117477417 3287.2230553627014 6728.7723977565765 125.00843989849091 371.88010251522064 235.72543716430664
leaf_count=119171 778 8037 394 3843 36751 906 78 1932 5317 322 38 12174 4441 345 134 1477 1081 36 37 61 262 32 105 103 3756 1121 3680 60 180 48
internal_value=-5.41765e-05 -0.00777418 0.118382 0.0226601 -0.0126758 0.0903661 0.169261 0.0805114 0.0136242 0.129167 0.203457 -0.00477715 0.0402246 0.149419 0.0519918 0.094021 0.0544354 0.129754 0.167424 0.218955 0.2274 0.250781 0.265106 0.237648 0.00642308 0.160249 -0.0158881 0.0284453 0.083042 0.324854
internal_weight=384519 360989 23530.3 50074.4 310915 15174.7 8355.64 12101.2 33064.7 3073.44 3068.07 89890.8 17009.8 5287.57 9514.97 7971.38 4129.83 533.045 397.393 2535.03 2294.74 1349.01 1200.27 822.356 22252.7 4301.42 221024 10811.9 496.889 377.914
internal_count=206700 197544 9156 25768 171776 6496 2660 5268 17350 1228 800 48925 8418 1860 4575 3409 1859 151 115 649 588 326 288 208 11793 1466 122851 5557 240 80
is_linear=0
shrinkage=0.05


Tree=3
num_leaves=31
num_cat=0
split_feature=7 7 7 7 7 7 5 5 6 7 5 5 12 5 3 3 11 7 6 11 6 11 7 3 0 7 6 0 11 7
split_gain=120522 16404.8 12588 2415.38 2342.05 2011.33 1627.26 929.089 845.002 843.362 780.258 779.361 676.88 713.098 683.692 654.476 652.956 597.613 672.078 586.229 575.554 568.455 548.24 531.291 531.269 565.865 496.715 542.111 487.07 447.232
threshold=3.7738095238095242 1.0714285714285716 8.071428571428573 2.2261904761904767 13.61904761904762 0.30952380952380959 1.0000000180025095e-35 1.0000000180025095e-35 1.0000000180025095e-35 5.3095238095238102 1.0000000180025095e-35 1.5000000000000002 0.48804828780300119 62.500000000000007 15.500000000000002 7.5000000000000009 0.70562632696390659 20.071428571428573 12.500000000000002 0.67313915857605189 3.5000000000000004 0.72233796296296304 21.500000000000004 24.500000000000004 4.5000000000000009 15.154761904761907 6.5000000000000009 4.5000000000000009 0.10063291139240509 7.3095238095238102
decision_type=2 2 2 2 2 2 2 2 2 2 2 2 2 2 2 2 2 2 2 2 2 2 2 2 2 2 2 2 2 2
left_child=1 5 6 11 10 -1 8 -5 16 -8 20 -3 13 15 -15 24 -2 -17 -19 -9 -4 26 -20 -22 25 -6 -12 -28 -7 -10
right_child=2 3 4 7 12 28 9 19 29 -11 21 -13 -14 14 -16 17 -18 18 22 -21 23 -23 -24 -25 -26 -27 27 -29 -30 -31
leaf_value=-0.01574498800006726 0.020202447512074291 0.003586744950088551 0.046662124236927983 0.018104179573129382 0.25832720367592893 -0.011937273899125805 0.063873391375054087 0.038236444628335552 0.056305070864325825 0.090367139156515897 0.10324357429370974 0.018861215616276669 0.089580096955629185 0.16301638743447422 0.30241856058754135 0.12802156537979689 0.17184912733573368 0.12245043988899705 0.26724213615328074 0.16219412131029359 0.086479342191613601 0.22734133727660694 0.17315912440825706 0.180224175363733 0.24705651300788714 0.14746831758064924 0.11818327329705469 0.16591799403670615 -0.0034047161007165548 0.12033360905882869
leaf_weight=217540.68916916847 2618.1549541950226 28281.591685414314 701.48307633399963 9895.5490927696228 140.02858448028564 25124.124418854713 6042.660101890564 10626.21849167347 2899.5122361183167 5972.8426563739777 2886.2481744289398 11850.407387733459 386.33201718330383 192.71140551567078 161.80397701263428 2384.3507976531982 72.961750030517578 600.89745259284973 181.12009620666504 96.244646310806274 671.1071310043335 120.94986414909363 1067.2343044281006 195.07109808921814 283.2071635723114 646.84598469734192 1941.7877881526947 857.41730284690857 50031.391066908836 301.04116010665894
leaf_count=122851 1244 15038 287 4995 39 13883 2594 4990 1281 2283 938 6154 113 36 28 641 32 133 41 41 235 36 202 65 65 142 615 254 27332 112
internal_value=-7.04462e-05 -0.00840131 0.093926 0.0152432 0.130541 -0.0133088 0.0664889 0.0291527 0.0449642 0.0770433 0.111629 0.00809708 0.153613 0.157985 0.226641 0.153396 0.0243139 0.144565 0.165897 0.0393491 0.0803274 0.12008 0.186809 0.107592 0.188332 0.167196 0.117798 0.132805 -0.00625711 0.0623275
internal_weight=384772 353446 31325.8 60750 13418.6 292696 17907.2 20618 5891.67 12015.5 7374.06 40132 6044.53 5658.2 354.515 5303.68 2691.12 4233.6 1849.25 10722.5 1567.66 5806.4 1248.35 866.178 1070.08 786.875 5685.45 2799.21 75155.5 3200.55
internal_count=206700 195284 11416 31218 3870 164066 7546 10026 2669 4877 2430 21192 1440 1327 64 1263 1276 1017 376 5031 587 1843 243 300 246 181 1807 869 41215 1393
is_linear=0
shrinkage=0.05


Tree=4
num_leaves=31
num_cat=0
split_feature=7 7 7 7 7 7 5 5 5 5 7 12 12 6 5 0 6 12 0 6 6 0 3 12 10 10 7 5 9 10
split_gain=105103 14956.5 9503.63 2397.31 1926.19 1552.86 1409.41 773.673 757.057 747.062 558.813 536.88 662.932 524.079 475.007 819.157 384.366 352.407 582.53 343.877 324.317 312.664 310.5 319.187 365.931 328.489 311.219 305.716 273.571 339.282
threshold=3.6904761904761911 0.92857142857142871 7.154761904761906 2.2261904761904767 13.61904761904762 0.15476190476190479 1.0000000180025095e-35 1.0000000180025095e-35 1.5000000000000002 8.5000000000000018 5.3095238095238102 0.26839941972920706 0.39943181818181822 1.0000000180025095e-35 6.5000000000000009 1.0000000180025095e-35 25.500000000000004 0.31225016655562959 1.5000000000000002 21.500000000000004 1.0000000180025095e-35 2.5000000000000004 26.500000000000004 0.36054813915857609 0.88780444719235108 0.99952546662448605 22.071428571428573 13.500000000000002 0.75000000000000011 0.035927254732153906
decision_type=2 2 2 2 2 2 2 2 2 2 2 2 2 2 2 2 2 2 2 2 2 2 2 2 2 2 2 2 2 2
left_child=1 5 6 8 9 -1 13 20 -3 11 -8 -4 -13 -2 15 -6 21 18 -17 -11 -5 -12 23 -16 -25 26 -26 -23 -29 -30
right_child=2 3 4 7 14 -7 10 -9 -10 19 16 12 -14 -15 22 17 -18 -19 -20 -21 -22 27 -24 24 25 -27 -28 28 29 -31
leaf_value=-0.01628412192305672 0.020325768255724571 0.0025037874762322992 0.034260634016907647 0.0082925882908550363 0.027887403047997628 -0.0084361978770986935 0.057148733463412253 0.036287143055738699 0.016181533017170454 0.1050391462166293 0.061629564978066723 0.10258483169443509 0.067783684652192172 0.049987039716670165 0.15226859369974499 0.23205157875864968 0.17129559232631172 0.10253670652012177 0.12173690690454764 0.15047525151945373 0.026757683995770738 0.079384346916380188 0.10014275466332725 0.079308647793082596 0.1953934683932588 0.12006057176829683 0.11727299783981791 0.15549179331161567 0.02171066602048987 0.13239882762378427
leaf_weight=183665.74988329411 2759.3822951316833 35508.291181087494 519.54733681678772 5265.405740737915 279.79765152931213 95967.399808883667 7133.6213512420654 10461.184073209763 14147.493524432182 4057.953706741333 1941.9647464752197 3137.8003661632538 2426.7664535045624 3235.2573456764221 2507.6531407833099 160.5802891254425 110.64380097389221 1048.9457945823669 469.75369143486023 464.04964971542358 4336.3680603504181 2207.9649333953857 538.12045478820801 352.4172797203064 351.00826621055603 1148.1136560440063 200.20792770385742 281.71972918510437 119.25243449211121 165.04684042930603
leaf_count=105471 1288 18917 193 2614 74 53601 2897 4728 7269 1140 688 960 831 1375 436 32 36 263 102 120 2148 791 105 79 73 242 34 95 42 56
internal_value=-8.3146e-05 -0.00842503 0.0817375 0.0122942 0.107778 -0.0135908 0.056121 0.0268805 0.00640073 0.0943095 0.0660387 0.0828692 0.0874077 0.0363337 0.128021 0.107095 0.0791779 0.120292 0.14984 0.109702 0.0166318 0.0770166 0.136063 0.140302 0.125677 0.135293 0.167019 0.0877885 0.120572 0.0859695
internal_weight=384969 349352 35617.6 69718.7 17662.7 279633 17954.9 20063 49655.8 10606.1 11960.2 6084.11 5564.57 5994.64 7056.6 1959.08 4826.59 1679.28 630.334 4522 9601.77 4715.95 5097.52 4559.4 2051.75 1699.33 551.216 2773.98 566.019 284.299
internal_count=206700 194748 11952 35676 4684 159072 7268 9490 26186 3244 4605 1984 1791 2663 1440 471 1708 397 134 1260 4762 1672 969 864 428 349 107 984 193 98
is_linear=0
shrinkage=0.05


Tree=5
num_leaves=31
num_cat=0
split_feature=7 7 7 8 8 5 7 8 12 8 7 8 5 8 8 5 8 11 5 11 7 5 8 0 0 3 8 11 7 11
split_gain=93470.4 10737.5 10417.5 2580.92 1856.99 1628.92 1171.74 1169.89 731.203 717.303 651.341 651.292 641.83 609.925 607.542 567.758 558.845 546.095 480.629 454.858 578.376 371.254 463.029 370.134 373.052 359.235 358.415 355.679 349.14 338.364
threshold=2.9285714285714293 7.154761904761906 0.84523809523809534 86.233225358630293 96.506247107820471 1.0000000180025095e-35 0.15476190476190479 98.712016041955891 0.27216631805076608 85.986426037328414 4.154761904761906 99.321301866419887 1.5000000000000002 98.496066635816774 96.992133271633534 5.5000000000000009 99.745488199907456 0.13170587239803691 1.5000000000000002 0.72233796296296304 19.154761904761909 9.5000000000000018 99.560388708931058 1.0000000180025095e-35 1.5000000000000002 9.5000000000000018 99.321301866419887 0.14091861876218148 11.500000000000002 0.50195143104943629
decision_type=2 2 2 2 2 2 2 2 2 2 2 2 2 2 2 2 2 2 2 2 2 2 2 2 2 2 2 2 2 2
left_child=2 5 6 12 15 17 14 10 13 -8 -7 18 -4 -6 -1 -3 25 -2 -5 29 -21 22 -15 -19 -25 -13 -11 -12 -17 -10
right_child=1 4 3 11 8 7 9 -9 19 26 27 16 -14 21 -16 28 -18 23 -20 20 -22 -23 -24 24 -26 -27 -28 -29 -30 -31
leaf_value=-0.01666556364957748 0.0057826728430679583 0.05864168965861747 -0.0036462907004253054 0.013553605783700462 0.0024402533833521181 0.038892832871674998 -0.011398060593126112 0.091323160108591608 0.11149679837135795 -0.0010472692841544866 0.037073491913407725 0.040708998048711295 0.0095905959736101096 0.088886979939102287 -3.3142815361995026e-05 0.073994619900397671 0.038451744205161092 0.0081461145213847265 0.027936503710572338 0.22586468336618634 0.12329762682238538 0.11217397562212722 -0.00085336328534526933 0.062217675537800221 0.033526477523660739 0.17500112516525504 0.05410195926276691 0.064134220122428962 0.10254800287392679 0.081017430404652355
leaf_weight=175030.90463876724 1960.0196249485016 3187.3362510204315 32372.696366906166 18370.17326772213 243.86202430725098 6948.9237012863159 66717.76885509491 1953.4676053524017 8732.7395007610321 17591.038188695908 1465.2012944221497 74.765483617782593 12770.243360757828 462.55484342575073 5668.2248375415802 2461.9554257392883 643.95305681228638 1082.6258907318115 8494.1432913541794 184.28845119476318 540.75258326530457 751.07712364196777 208.542729139328 1439.4532322883606 5320.8130822181702 149.12646579742432 299.62793338298798 7090.5495355129242 1894.372549533844 1016.5645592212677
leaf_count=102265 904 983 17387 9418 84 2920 37879 638 1849 9770 530 30 6474 136 3206 686 301 490 4080 37 66 147 64 630 2370 61 164 2499 392 240
internal_value=-9.33181e-05 0.0660194 -0.00927081 0.00747326 0.0941605 0.0456999 -0.0138701 0.0548585 0.106266 -0.00901406 0.0502642 0.0194785 9.8221e-05 0.0754987 -0.0161438 0.0746781 0.0621102 0.0293893 0.0181013 0.11116 0.149368 0.0880261 0.0610003 0.0352889 0.0396357 0.130156 -0.000123645 0.0595 0.0864112 0.108319
internal_weight=385128 46945.1 338183 72875.1 19684 27261.1 265308 17458.1 12140.4 84608.4 15504.7 27732.2 45142.9 1666.04 180699 7543.66 867.845 9802.91 26864.3 10474.3 725.041 1422.17 671.098 7842.89 6760.27 223.892 17890.7 8555.75 4356.33 9749.3
internal_count=206700 15665 191035 37751 4684 10981 153284 6587 2623 47813 5949 13890 23861 431 105471 2061 392 4394 13498 2192 103 347 200 3490 3000 91 9934 3029 1078 2089
is_linear=0
shrinkage=0.05


Tree=6
num_leaves=31
num_cat=0
split_feature=7 7 7 8 8 11 7 8 6 6 8 8 0 7 8 7 11 3 11 0 6 11 12 0 9 11 8 11 8 0
split_gain=83917.6 9363.11 9158.15 2208.98 1652.57 1248.53 1159.13 696.408 691.607 619.992 603.689 597.287 596.697 507.026 479.772 472.065 426.472 661.164 571.131 548.847 544.786 493.578 816.699 458.029 427.848 395.149 381.752 361.16 322.832 308.825
threshold=2.8452380952380958 0.84523809523809534 6.154761904761906 86.233225358630293 96.506247107820471 0.13337825696316266 0.15476190476190479 85.986426037328414 1.0000000180025095e-35 11.500000000000002 96.506247107820471 96.992133271633534 1.0000000180025095e-35 18.071428571428573 98.496066635816774 13.61904761904762 0.2958754208754209 28.500000000000004 0.26857257097161141 1.0000000180025095e-35 7.5000000000000009 0.72233796296296304 0.26839941972920706 4.5000000000000009 0.75000000000000011 0.14352521990869616 99.560388708931058 0.095413165266106451 99.321301866419887 4.5000000000000009
decision_type=2 2 2 2 2 2 2 2 2 2 2 2 2 2 2 2 2 2 2 2 2 2 2 2 2 2 2 2 2 2
left_child=1 6 5 27 9 -2 11 -8 12 25 -5 -1 -7 -11 -10 16 18 21 19 -6 -19 22 -18 -20 -21 -4 -14 -3 -9 -28
right_child=2 3 4 10 15 8 7 28 14 13 -12 -13 26 -15 -16 -17 17 20 23 24 -22 -23 -24 -25 -26 -27 29 -29 -30 -31
leaf_value=-0.016528371746568165 0.015199355596096149 -0.0070673543449970982 0.026968510658267521 0.013478473339533628 0.1414057769781806 0.0062526542141480334 -0.011244094968466414 -0.0010223498660828084 0.047301485748334648 0.074665438433917666 0.030407153554640159 -3.2319728315503013e-05 0.036303760160118333 0.12823733120165468 0.075968276541431651 0.10096586492689164 0.0099150568755595955 0.077061536261349942 0.1133682899414515 0.094664520251573361 0.20771156367322197 0.1335635868799438 0.073358603859417101 0.22594767542734073 0.049663949787410261 0.061603190684948163 0.11420948784184354 0.0027812879133387678 0.04994508731315199 0.027647798354474493
leaf_weight=172138.09257984161 4719.1233823299408 13306.563789486885 948.8824405670166 20002.486020445824 428.91076946258545 1687.4762101173401 65961.633462667465 17572.625114560127 11161.675038099289 2739.3418016433716 7148.3635565042496 5668.037184715271 7190.0579988956451 526.56818342208862 1679.1084167957306 6747.0815508365631 588.58537578582764 157.52157783508301 252.89883041381836 1621.8416531085968 161.69203591346741 276.21195960044861 3671.0237445831299 140.56316447257996 783.29281258583069 6233.7694118022919 292.36453032493591 30982.719034552574 316.28492331504822 159.11713647842407
leaf_count=102265 2020 7172 295 9943 103 701 37879 9770 4336 711 3452 3206 2936 85 576 1022 188 36 59 373 32 61 907 29 202 1722 102 16299 164 54
internal_value=-0.00010206 -0.00933692 0.0588643 0.00670623 0.080471 0.0385519 -0.0137172 -0.00887111 0.0435227 0.0652405 0.0179355 -0.0160025 0.0331618 0.0833029 0.0510501 0.091202 0.0830514 0.073687 0.0971379 0.0893009 0.14324 0.0687922 0.0645921 0.153587 0.0800089 0.0570277 0.0391042 -0.000177703 -0.00012122 0.0837023
internal_weight=385264 333097 52167.1 71440.1 25278.2 26888.9 261657 83850.5 22169.8 10448.6 27150.8 177806 9329.02 3265.91 12840.8 14829.6 8082.54 4855.03 3227.51 2834.05 319.214 4535.82 4259.61 393.462 2405.13 7182.65 7641.54 44289.3 17888.9 451.482
internal_count=206700 190150 16550 36866 5825 10725 153284 47813 8705 2813 13395 105471 3793 796 4912 3012 1990 1224 766 678 68 1156 1095 88 575 2017 3092 23471 9934 156
is_linear=0
shrinkage=0.05


Tree=7
num_leaves=31
num_cat=0
split_feature=7 7 7 5 7 5 11 11 5 0 11 12 11 0 11 11 11 6 7 2 11 12 0 11 6 0 12 11 12 11
split_gain=75914.9 8708.24 7650.54 1348.7 1146.15 1034.94 956.532 875.58 799.539 791.411 642.713 473.591 443.701 435.762 403.838 382.466 362.015 316.748 313.277 353.304 299.039 296.002 288.129 379.356 288.031 273.238 477.62 554.37 273.185 389.833
threshold=2.535714285714286 6.154761904761906 0.84523809523809534 1.0000000180025095e-35 0.15476190476190479 8.5000000000000018 0.11131763733994218 0.20010537407797685 1.5000000000000002 1.0000000180025095e-35 0.72233796296296304 0.48366666666666674 0.088562091503267992 2.5000000000000004 0.088562091503267992 0.10063291139240509 0.43019480519480524 1.0000000180025095e-35 6.3095238095238102 7.0000000000000009 0.35712204728997449 0.53954521963824298 1.0000000180025095e-35 0.70562632696390659 1.0000000180025095e-35 5.5000000000000009 0.30854545454545462 0.40094936708860768 0.26839941972920706 0.20948987246811707
decision_type=2 2 2 2 2 2 2 2 2 2 2 2 2 2 2 2 2 2 2 2 2 2 2 2 2 2 2 2 2 2
left_child=2 3 4 12 -1 9 -4 -5 24 16 14 -7 -2 -12 -11 -6 20 22 19 -16 -3 25 -14 -24 -8 -9 -27 -28 -20 -30
right_child=1 5 6 7 15 11 8 21 -10 10 13 -13 17 -15 18 -17 -18 -19 28 -21 -22 -23 23 -25 -26 26 27 -29 29 -31
leaf_value=-0.015860167203603118 -0.0068607618677827518 0.031759647724709149 -0.0043816615379563125 0.030328531853328962 -0.01318532416423681 0.085301316352501821 0.0012219731373756591 0.050935779737034753 0.018924246834577451 -0.010767368595045554 0.18078694500499121 0.057870946088350139 -0.0081723210186905888 0.07921290140612397 0.15374159947786603 -0.0061474267017556997 -0.014540389461565382 0.032455232710653481 0.033995933791971404 0.045800225877702612 0.092991773860336857 0.029438031961065855 0.019258986418092688 0.12534349808337286 0.010580151316894278 0.020303441461252379 0.079229615346638596 0.20990804869331089 0.05121051078637863 0.072907636471789758
leaf_weight=174984.17085254192 1252.1911144256592 1153.9362847805023 18258.863133430481 8725.8742089271545 30487.959711670876 12229.119109630585 20935.665207505226 8393.7124166488647 14403.41522192955 174.22969651222229 201.34599471092224 1805.9204127788544 1017.593607544899 222.02536225318909 206.92065453529358 52623.300907611847 349.89245891571045 5984.1669673919678 687.63048076629639 119.63841009140015 241.04353618621826 1345.1932168006897 4443.3606541156769 85.901062250137329 13540.183657050133 322.38261556625366 1079.1966960430145 87.757669448852539 2923.469954252243 7093.0220623016357
leaf_count=105471 584 311 9829 3328 17735 2082 10897 2936 6966 60 28 418 476 37 61 30078 93 2514 209 36 59 500 2007 32 7002 110 380 30 809 1622
internal_value=-0.000109449 0.0514948 -0.00965263 0.0340867 -0.0135639 0.0722877 0.00538308 0.0422095 0.0090307 0.0623342 0.0670459 0.0817718 0.0214072 0.127519 0.0647609 -0.00872916 0.0309341 0.0244769 0.0659539 0.114196 0.0423402 0.0514427 0.0158695 0.021271 0.00489734 0.0544378 0.0741745 0.0890569 0.0644821 0.066575
internal_weight=385379 60145.5 325234 32737.3 258095 27408.2 67138.1 19954.1 48879.3 13373.2 11628.3 14035 12783.2 423.371 11204.9 83111.3 1744.87 11531 11030.7 326.559 1394.98 11228.2 5546.86 4529.26 34475.8 9883.05 1489.34 1166.95 10704.1 10016.5
internal_count=206700 18722 187978 12897 153284 5825 34694 7284 24865 3325 2862 2500 5613 65 2797 47813 463 5029 2737 97 370 3956 2515 2039 17899 3456 520 410 2640 2431
is_linear=0
shrinkage=0.05


Tree=8
num_leaves=31
num_cat=0
split_feature=8 8 10 12 8 11 11 8 11 11 11 12 11 12 11 0 11 11 11 11 8 12 11 12 12 9 8 8 11 12
split_gain=35821 7615.48 2940.54 2205.62 1987.47 1940.48 1546.83 1511.3 1852.82 1434.46 1409.4 1529.55 1297.46 1281.83 1485.99 1245.73 1129.53 1066.18 1861.57 1053.95 1143.75 1175.99 979.655 934.003 825.064 781.272 796.536 1497.28 780.103 720.258
threshold=96.506247107820471 84.667592164121558 0.99718517369727067 0.32521186440677968 99.560388708931058 0.10063291139240509 0.72233796296296304 99.128489896652795 0.43019480519480524 0.42210953346855989 0.20010537407797685 0.32687617260787999 0.27326839826839833 0.31096096096096099 0.18205492424242428 5.5000000000000009 0.16960215957870514 0.41824148840723435 0.35712204728997449 0.25282181357006978 62.016041955884624 0.59629352168949779 0.20010537407797685 0.36784043339079048 0.45844191440016874 0.95000000000000007 71.94971463828476 70.962517353077288 0.38430769230769241 0.35720046082949314
decision_type=2 2 2 2 2 2 2 2 2 2 2 2 2 2 2 2 2 2 2 2 2 2 2 2 2 2 2 2 2 2
left_child=1 5 4 -3 17 -1 -6 8 13 10 -5 -12 23 16 29 24 -4 18 -2 20 -7 25 -23 -13 -16 -22 27 -27 -14 -15
right_child=2 3 7 9 6 19 -8 -9 -10 -11 11 12 28 14 15 -17 -18 -19 -20 -21 21 22 -24 -25 -26 26 -28 -29 -30 -31
leaf_value=-0.014866866069549012 0.0077637151511262444 -0.0043565538562210194 0.093436449022623991 0.0058877414208394693 0.035376747798309509 -0.0095703090140576343 0.10610315927376848 0.072714898340440745 0.015830796795443004 -0.0087062067898779748 0.095136004977291314 0.0072808224809377863 0.0039025002030942412 0.057626973259407313 0.066353351790884724 0.11198535431734991 0.019553075563319491 -0.0034720873263951132 0.06317000855852907 -0.014390408360016472 -0.0024226819027268302 0.066127114788978494 -0.0087459701191215985 0.038238729365375035 -0.0023377345876155653 0.01662244727941458 -0.0038788702318270311 0.10273109302388619 0.029584371853937544 0.00613647932837678
leaf_weight=111027.47351849079 4230.9724107980728 28159.435986757278 599.49750137329102 22267.794855237007 2514.6989902257919 49469.308148026466 1116.2246502637863 6885.5990444421768 4158.8721730709076 6962.0786718130112 706.87124621868134 3111.1718299388885 11332.404977679253 1204.8815492391586 8005.3635699748993 1503.8597588539124 3772.8969887495041 4740.7948814630508 2362.5195020437241 30051.18357360363 56391.908964753151 1219.265763759613 680.83063983917236 11233.114439249039 462.39627838134766 2562.0171986818314 2553.6511586904526 628.72197270393372 4000.8353041410446 1556.558732509613
leaf_count=66040 2080 15470 130 11440 910 28470 130 1560 1950 3900 130 1560 5850 390 1887 361 1690 2470 650 17680 31200 390 390 4420 222 1300 1430 130 1690 780
internal_value=-0.000115485 -0.00552448 0.0428349 0.00717576 0.0249261 -0.00990317 0.0571196 0.0523557 0.0457631 0.0126232 0.0154435 0.0224466 0.0207153 0.0530406 0.0610613 0.07005 0.0296832 0.014613 0.0276164 -0.00606423 -0.00385983 0.000551614 0.0392991 0.0315242 0.0626024 -0.000633263 0.0169332 0.0335898 0.0106036 0.028603
internal_weight=385473 342358 43115.1 87773.7 14965.2 254584 3630.92 28149.9 21264.3 59614.3 52652.2 30384.4 29677.5 17105.5 12733.1 9971.62 4372.39 11334.3 6593.49 143557 113506 64036.4 1900.1 14344.3 8467.76 62136.3 5744.39 3190.74 15333.2 2761.44
internal_count=206700 191490 15210 44460 6240 147030 1040 8970 7410 28990 25090 13650 13520 5460 3640 2470 1820 5200 2730 80990 63310 34840 780 5980 2109 34060 2860 1430 7540 1170
is_linear=0
shrinkage=0.05


Tree=9
num_leaves=31
num_cat=0
split_feature=7 7 7 8 7 5 5 8 6 8 8 8 5 0 0 0 8 8 12 8 5 8 5 7 0 12 8 7 6 0
split_gain=65189.4 7339.45 5819.43 1618.96 1133.95 983.588 800.754 636.169 628.303 577.092 513.203 465.172 444.198 417.649 408.495 659.038 838.604 380.522 351.063 341.696 268.772 267.852 254.914 251.105 250.106 249.99 238.446 230.97 221.842 228.728
threshold=2.535714285714286 0.84523809523809534 5.3095238095238102 86.233225358630293 0.15476190476190479 8.5000000000000018 2.5000000000000004 85.986426037328414 1.5000000000000002 96.992133271633534 99.745488199907456 81.312663890174306 1.0000000180025095e-35 5.5000000000000009 1.0000000180025095e-35 1.5000000000000002 99.128489896652795 96.506247107820471 0.48180288461538462 93.675767391639695 1.5000000000000002 99.321301866419887 1.0000000180025095e-35 7.6190476190476195 2.5000000000000004 0.51401058201058214 99.745488199907456 16.309523809523814 1.5000000000000002 1.0000000180025095e-35
decision_type=2 2 2 2 2 2 2 2 2 2 2 2 2 2 2 2 2 2 2 2 2 2 2 2 2 2 2 2 2 2
left_child=1 4 6 12 9 8 11 -6 14 -1 13 -2 -3 27 -4 16 25 20 -7 -8 -5 -9 -17 -12 -23 -16 -11 -10 29 -13
right_child=2 3 5 17 7 18 19 21 10 26 23 28 -14 -15 15 22 -18 -19 -20 -21 -22 24 -24 -25 -26 -27 -28 -29 -30 -31
leaf_value=-0.016178686452788638 0.010127268876484376 -0.004842647048391574 0.010783202449633159 0.0075054662045756296 -0.010817350675871933 0.070459543791537724 0.031909528429509414 -0.0010159408497379672 0.047863917173838172 -0.0025360820584839632 0.15660352402071742 -0.0019272151997893985 0.0057509962067372727 0.07744920211771604 0.041261814321999171 0.02122682258950255 0.18761007503654531 0.025315323763535777 0.049837752819810642 0.04863086753227186 0.020484514052137318 0.094244019907740839 0.047160839117902198 0.083291469896689882 0.0079316740790301623 0.12053729807654481 0.040417787145041566 0.069296855729113538 0.034939208808142046 0.025219695412653127
leaf_weight=165179.69355249405 5561.1920778751373 25937.354841589928 1162.5142192840576 12972.119505167007 63952.717128992081 14861.661236286163 7679.9306445121765 17567.896005749702 8698.8900363445282 5297.5836738348007 151.57127809524536 916.9484771490097 15998.882236242294 1743.2799370288849 446.3537323474884 1702.2722442150116 162.39929866790771 6786.3753017187119 2396.6405160427094 5073.5002369880676 5759.8374069929123 142.34931063652039 2137.0992794036865 509.15303087234497 204.51183891296387 127.95239615440369 344.07684624195099 1469.305214881897 5543.8925865888596 5045.0598241090775
leaf_count=102265 2434 14178 341 6484 37879 2279 2831 9770 2066 3017 35 400 8278 380 136 558 36 3102 539 1670 2652 67 535 89 97 38 189 185 2112 2058
internal_value=-0.000119319 -0.00941133 0.0453738 0.00524134 -0.0133228 0.0590315 0.0290833 -0.00848456 0.0509594 -0.0156416 0.0572168 0.0220006 -0.00080112 0.0548376 0.0372504 0.0439742 0.0872915 0.0151714 0.0675958 0.0385615 0.0114964 -0.000156868 0.0356624 0.100109 0.0433536 0.058924 8.36133e-05 0.050961 0.0277394 0.0210445
internal_weight=385533 320143 65389.6 67454.6 252689 35569.1 29820.5 81867.5 18310.8 170821 12572.2 17067.1 41936.2 11911.5 5738.59 4576.08 736.705 25518.3 17258.3 12753.4 18732 17914.8 3839.37 660.724 346.861 574.306 5641.66 10168.2 11505.9 5962.01
internal_count=206700 187978 18722 34694 153284 7217 11505 47813 4399 105471 2755 7004 22456 2631 1644 1303 210 12238 2818 4501 9136 9934 1093 124 164 174 3206 2251 4570 2458
is_linear=0
shrinkage=0.05


Tree=10
num_leaves=31
num_cat=0
split_feature=7 7 7 8 8 5 8 7 11 8 8 5 8 8 5 7 8 12 10 5 11 12 0 8 0 11 7 0 2 11
split_gain=59751.1 6072.51 5919.93 1435.06 901.442 879.548 781.41 737.38 539.645 522.87 440.086 396.02 369.314 356.428 337.677 290.79 288.955 266.283 422.548 261.187 250.391 248.391 243.961 296.728 230.941 253.014 263.8 220.46 219.069 255.079
threshold=2.2261904761904767 5.3095238095238102 0.58571428571428574 86.233225358630293 96.992133271633534 1.0000000180025095e-35 96.506247107820471 0.15476190476190479 0.088562091503267992 96.382847447169539 81.312663890174306 1.0000000180025095e-35 99.560388708931058 94.732376985963313 8.5000000000000018 1.4642857142857146 79.399969150084857 0.27216631805076608 0.99718517369727067 5.5000000000000009 0.13337825696316266 0.45844191440016874 1.0000000180025095e-35 94.593552367730993 1.0000000180025095e-35 0.17101801254806723 4.6190476190476195 1.0000000180025095e-35 11.500000000000002 0.28636363636363643
decision_type=2 2 2 2 2 2 2 2 2 2 2 2 2 2 2 2 2 2 2 2 2 2 2 2 2 2 2 2 2 2
left_child=2 5 4 11 7 10 8 -1 -3 20 -2 -4 -6 19 17 -5 -9 18 -8 22 -7 -19 -10 -24 -12 26 -26 -20 29 -16
right_child=1 6 3 15 12 9 14 16 13 -11 24 -13 -14 -15 28 -17 -18 21 27 -21 -22 -23 23 -25 25 -27 -28 -29 -30 -31
leaf_value=-0.016037592531550755 0.0051278230944239792 -0.0062586269100391462 -0.0059873182220600459 0.0078899486851941193 -0.00056071504587959986 0.016374849103328894 -0.012108671932151677 -0.011798117133376321 0.016191700721426571 0.046454411028613946 0.0025897645904840623 0.0033544885880182757 0.036486788674386865 0.028917071127019259 0.079531188928604682 0.018824690772097516 -0.0043446515808734506 0.059211037316755359 -0.0017176311221307533 0.056855468524684906 0.031174525402783489 0.021793672790568083 0.04406856071178436 0.10203331571303556 0.0054645813929834874 0.030660284031896325 0.075740272741690776 0.058511182118107519 0.050944040085817356 0.062878109757781478
leaf_weight=162528.80217969418 5499.5331689119339 481.94359040260315 31602.360622763634 17006.826743483543 7196.5568398237228 3671.9634280204773 369.47962117195129 46983.580884814262 753.27333927154541 4921.884209394455 1229.0733939409256 17698.139264583588 742.05688667297363 2221.5467731952667 3716.9251892566681 9463.0599077939987 17979.34829390049 7955.1117792129517 179.56324315071106 7362.4528563022614 12891.984486341476 469.72586464881897 5012.4948887825012 230.95857000350952 1891.4732367992401 6413.8203496932983 143.6816782951355 987.51570153236389 1969.0311696529388 6029.7095866203308
leaf_count=102265 2555 162 17715 8517 4056 1482 111 28223 219 1544 546 9399 376 560 484 4378 10329 1443 50 1457 4599 106 1323 43 836 2611 52 228 276 755
internal_value=-0.00012386 0.040129 -0.00974768 0.00240829 -0.0136599 0.0256366 0.0542081 -0.0142379 0.0458501 0.0321455 0.0164224 -0.00263375 0.00290228 0.047462 0.0604014 0.0117992 -0.00973527 0.0536336 0.0344916 0.0505459 0.0278937 0.0571248 0.0427993 0.0466217 0.0228405 0.0257863 0.010426 0.0492446 0.0661557 0.0692288
internal_weight=385604 74403.1 311201 75770.4 235430 36663.4 37739.7 227492 16062.7 21485.8 15177.6 49300.5 7938.61 15580.7 21677.1 26469.9 64962.9 9961.4 1536.56 13359.2 16563.9 8424.84 5996.73 5243.45 9678.05 8448.98 2035.15 1167.08 11715.7 9746.63
internal_count=206700 21442 185258 40009 145249 14225 7217 140817 3764 7625 6600 27114 4432 3602 3453 12895 38552 1938 389 3042 6081 1549 1585 1366 4045 3499 888 278 1515 1239
is_linear=0
shrinkage=0.05


Tree=11
num_leaves=31
num_cat=0
split_feature=7 7 7 8 8 5 7 5 11 8 8 5 6 8 8 11 8 7 3 6 7 8 6 10 6 8 5 5 2 3
split_gain=55074.7 5750.35 5101.36 1348.64 879.104 775.391 730.183 632.841 480.261 469.084 399.781 378.617 359.27 350.76 337.501 297.663 285.392 265.855 226.427 220.929 217.093 210.819 246.502 201.922 201.151 199.145 197.984 192.274 270.222 235.302
threshold=2.2261904761904767 0.58571428571428574 5.3095238095238102 86.233225358630293 96.992133271633534 1.0000000180025095e-35 0.15476190476190479 8.5000000000000018 0.088562091503267992 98.712016041955891 81.312663890174306 1.0000000180025095e-35 1.5000000000000002 99.745488199907456 99.560388708931058 0.13337825696316266 66.766928890945564 1.4642857142857146 29.500000000000004 2.5000000000000004 1.0714285714285716 96.506247107820471 10.500000000000002 0.0040369530579727917 1.5000000000000002 99.128489896652795 4.5000000000000009 1.0000000180025095e-35 2.5000000000000004 18.500000000000004
decision_type=2 2 2 2 2 2 2 2 2 2 2 2 2 2 2 2 2 2 2 2 2 2 2 2 2 2 2 2 2 2
left_child=1 4 5 11 6 10 -1 8 -4 15 -2 -3 18 -14 23 -7 -8 -5 27 -11 -13 22 -9 -6 -12 -25 -17 28 29 -10
right_child=2 3 7 17 14 9 16 21 12 19 24 20 13 -15 -16 26 -18 -19 -20 -21 -22 -23 -24 25 -26 -27 -28 -29 -30 -31
leaf_value=-0.015895459053104851 0.0049746015760026019 -0.0058741673372422433 -0.013334180385502823 0.007632811474943782 -0.0090651205232493443 0.015851460467139668 -0.012776899171458151 0.043282469070270085 0.055564078932808771 0.042135156877471019 0.015370781593347274 -0.0030964604143018416 0.047337393191714733 0.082003219199324573 0.034289885190381751 0.025737535566284754 -0.0061102530561606503 0.018010605228423612 0.10224576046288553 0.078990290784947848 0.0080682635205717099 0.060327037655940476 0.063372881206597356 0.0058444593042454212 0.029708270104589249 0.081380407253546783 0.036714513421913356 0.041545494469420692 0.0087189532352095044 0.0087803041316609886
leaf_weight=159943.02375638485 5527.8062324523926 31413.71237552166 361.02386808395386 17141.540467977524 3536.5065587759018 3949.0445995330811 33557.727023124695 4895.632212638855 837.75592374801636 1185.7042500972748 5490.0433394908905 7647.4252848625183 13112.703575134277 772.70504450798035 769.63217282295227 8347.3740417957306 30776.196957707405 9642.886261343956 121.18825006484985 618.86221075057983 10110.18194770813 12517.570207118988 2218.7668719291687 3566.5704513788223 4412.5572975873947 89.445715308189392 8087.7386951446533 3164.606559753418 1450.1515228748322 395.72063064575195
leaf_count=102265 2555 17715 132 8517 2023 1560 20434 955 240 310 2332 4270 2594 124 376 2892 18118 4378 29 154 5129 1515 348 1988 1713 45 2709 726 438 116
internal_value=-0.000127571 -0.00960059 0.0375599 0.00234182 -0.0135065 0.0243545 -0.0140861 0.0500268 0.0438173 0.0303406 0.0157465 -0.00257544 0.0448565 0.0492665 0.00282028 0.0281776 -0.0095877 0.011369 0.0345986 0.0547743 0.0032601 0.0564209 0.0495481 -0.000547103 0.0217595 0.00769247 0.0311393 0.0331968 0.0233518 0.040555
internal_weight=385662 308195 77467 75955.7 232239 37619.1 224277 39847.8 20215.9 22188.7 15430.4 49171.3 19854.8 13885.4 7962.15 20384.2 64333.9 26784.4 5969.42 1804.57 17757.6 19632 7114.4 7192.52 9902.6 3656.02 16435.1 5848.23 2683.63 1233.48
internal_count=206700 185258 21442 40009 145249 14225 140817 7217 4399 7625 6600 27114 4267 2718 4432 7161 38552 12895 1549 464 9399 2818 1303 4056 4045 2033 5601 1520 794 356
is_linear=0
shrinkage=0.05


Tree=12
num_leaves=31
num_cat=0
split_feature=5 6 6 8 8 8 5 5 8 8 0 0 12 11 8 5 11 10 8 11 9 3 8 5 8 11 11 0 0 0
split_gain=34036.1 9635.3 3730.55 3512.45 2663.99 1580.93 1161.36 1071.86 832.846 815.066 663.948 707.355 718.739 718.046 627.441 567.185 520.289 426.648 389.635 326.95 343.374 323.58 308.109 307.18 288.783 276.215 273.842 250.053 248.419 246.863
threshold=2.5000000000000004 1.5000000000000002 1.0000000180025095e-35 95.503624865031625 96.506247107820471 96.506247107820471 1.0000000180025095e-35 8.5000000000000018 99.321301866419887 81.312663890174306 1.0000000180025095e-35 5.5000000000000009 0.28114224137931038 0.72233796296296304 75.435755051673624 5.5000000000000009 0.21457142857142861 0.0040369530579727917 81.312663890174306 0.09699820788530468 0.95000000000000007 4.5000000000000009 99.128489896652795 9.5000000000000018 99.321301866419887 0.13660287081339714 0.14263110307414109 5.5000000000000009 5.5000000000000009 1.0000000180025095e-35
decision_type=2 2 2 2 2 2 2 2 2 2 2 2 2 2 2 2 2 2 2 2 2 2 2 2 2 2 2 2 2 2
left_child=1 3 5 6 9 15 14 16 17 19 -10 12 -12 21 -1 -2 -4 -5 -8 -3 28 -14 29 -7 27 -17 -9 -6 -21 -19
right_child=2 4 7 8 24 23 18 26 10 -11 11 -13 13 -15 -16 25 -18 22 -20 20 -22 -23 -24 -25 -26 -27 -28 -29 -30 -31
leaf_value=-0.014975913041697925 0.005149094206232812 -0.0077499162584794461 0.025551498066491124 -0.0033229423510637772 0.030334528378955491 0.028997984113741188 -0.005773513142720503 0.032234774283788549 -0.013602765170948739 0.01809235687979472 0.02923023124411437 -0.0096247299433035918 0.1588117968631918 0.21799966028371853 -0.0095250877460655182 0.0081476281980778133 0.043311548281177371 -0.0072313591600270746 0.0075079696810893427 0.00053222980484014402 0.030688181553411756 0.063251844387981648 0.070160010912820175 0.050727079354517403 0.054734052270487922 0.026636115456007338 0.053965908910688379 0.058202874139785747 0.020186894323755512 0.012587548634530779
leaf_weight=144209.80796265602 11052.973080039024 5670.5908681154251 7947.4778372049332 9729.6968466043472 5300.5781661272049 2936.2451509237289 20615.822465538979 1580.6802467107773 601.25594401359558 14485.706055164337 938.78047633171082 463.67743420600891 102.1013491153717 100.4822633266449 83284.449994921684 2789.832242846489 8571.2214186191559 1849.6518942117691 7542.3888354301453 9453.3070673942566 1333.8149440288544 669.26949739456177 213.70833778381348 3646.2854604721069 2479.157557964325 7322.3979889154434 17494.091686964035 949.03010952472687 1937.0821732282639 10437.820878624916
leaf_count=90991 5436 3275 2824 5343 1592 945 12090 394 211 6032 405 162 36 15 50375 1220 2158 936 3780 4881 601 218 74 641 467 2526 2619 287 1004 5162
internal_value=-0.000130618 -0.00671442 0.0333769 -0.0100422 0.0157398 0.0196338 -0.0117948 0.0440907 0.00780379 0.00922131 0.0331245 0.0454777 0.0595887 0.0922776 -0.0129804 0.0129781 0.0347668 0.00452855 -0.00221597 0.00223546 0.00668548 0.0759005 0.0106394 0.0410345 0.0402945 0.0215354 0.0521651 0.0345665 0.00387476 0.00960418
internal_weight=385709 322368 63341.2 280759 41609.3 27747.7 255652 35593.5 25106.4 32880.5 2875.57 2274.31 1810.63 871.853 227494 21165.2 16518.7 22230.9 28158.2 18394.8 12724.2 771.371 12501.2 6582.53 8728.77 10112.2 19074.8 6249.61 11390.4 12287.5
internal_count=206700 187937 18763 169798 18139 10768 157236 7995 12562 15793 1047 836 674 269 141366 9182 4982 11515 15870 9761 6486 254 6172 1586 2346 3746 3013 1879 5885 6098
is_linear=0
shrinkage=0.05


Tree=13
num_leaves=31
num_cat=0
split_feature=5 6 8 6 8 8 5 5 8 8 8 0 0 5 11 8 12 9 2 11 9 0 5 8 11 6 0 11 2 12
split_gain=31494.1 9169.31 3385.92 3211.48 2368.91 1397.67 1134.96 890.492 752.52 752.268 623.147 589.548 611.118 507.018 444.736 370.698 350.503 344.802 797.022 310.495 313.032 302.519 301.145 240.27 240.067 232.055 230.365 225.834 223.383 215.927
threshold=2.5000000000000004 1.5000000000000002 95.503624865031625 1.0000000180025095e-35 96.506247107820471 96.174610519821087 1.0000000180025095e-35 8.5000000000000018 99.321301866419887 81.312663890174306 65.548357242017588 1.0000000180025095e-35 2.5000000000000004 5.5000000000000009 0.21457142857142861 81.312663890174306 0.29534632034632041 0.60000000000000009 1.5000000000000002 0.09699820788530468 0.95000000000000007 1.0000000180025095e-35 9.5000000000000018 99.321301866419887 0.13660287081339714 1.0000000180025095e-35 5.5000000000000009 0.14263110307414109 2.5000000000000004 0.46620405101275325
decision_type=2 2 2 2 2 2 2 2 2 2 2 2 2 2 2 2 2 2 2 2 2 2 2 2 2 2 2 2 2 2
left_child=1 2 6 5 9 13 10 14 21 19 -1 -10 17 -2 -5 -8 -14 18 -13 -3 26 -4 -7 -6 -15 -12 -21 -9 -18 -16
right_child=3 4 8 7 23 22 15 27 11 -11 25 12 16 24 29 -17 28 -19 -20 20 -22 -23 -24 -25 -26 -27 -28 -29 -30 -31
leaf_value=-0.015510122242604903 0.0046633614584770007 -0.0076170385325905702 -0.0093501678288682739 0.024280501151106526 0.032545548401717604 0.026400632223625538 -0.005663176387036316 0.030424658944144284 -0.013449010030537865 0.017322786091974005 -0.010851298832125211 0.21267875119018639 0.010174064428546578 0.0078800363211223075 0.045816194593494293 0.0072660919186052098 0.10448243168947646 0.048272618468154949 0.058693768391079038 0.0005187351515471329 0.02901032902903717 0.006858143684786204 0.046610526812109296 0.05049626298368054 0.025111656627215574 -0.0019280966475375744 0.019287268480826097 0.049826357727799746 0.026540271684442718 0.029239985015290133
leaf_weight=110144.25168633461 10875.59966802597 5626.8141269683838 3394.9007925987244 8153.1644266843796 6469.7377868890762 3390.5982465744019 20497.139788866043 1632.4632406234741 593.13257336616516 14750.171812415123 106596.33631277084 129.46931290626526 1172.7455846071243 2812.6555981636047 6038.6046223640442 7599.229976773262 186.75804817676544 473.99599719047546 239.45490288734436 9458.3397485017776 1375.3818408250809 18938.121539473534 4039.065509557724 2618.6341462135315 7183.4877370595932 7820.5616189241409 1976.5832103490829 18464.114925146103 181.0411502122879 2912.0063500404358
leaf_count=70771 5339 3275 1781 2824 1879 1091 12090 394 211 6032 66058 27 455 1220 1273 3780 48 174 76 4881 601 9734 699 467 2419 4537 1004 2619 56 885
internal_value=-0.00013287 -0.00659419 -0.00989369 0.031457 0.0151003 0.018764 -0.0116403 0.0411137 0.00754183 0.00890654 -0.0128256 0.0311575 0.0422579 0.0121346 0.0327282 -0.00216619 0.0235303 0.0764852 0.112733 0.00217333 0.00647366 0.00439428 0.0373875 0.0377177 0.0202631 -0.0102414 0.00376297 0.0482503 0.0661171 0.0404233
internal_weight=385745 320243 277967 65501.8 42275.7 28301.4 252658 37200.4 25309.6 33187.3 224561 2976.6 2383.46 20871.7 17103.8 28096.4 1540.54 842.92 368.924 18437.1 12810.3 22333 7429.66 9088.37 9996.14 114417 11434.9 20096.6 367.799 8950.61
internal_count=206700 187937 169798 18763 18139 10768 157236 7995 12562 15793 141366 1047 836 8978 4982 15870 559 277 103 9761 6486 11515 1790 2346 3639 70595 5885 3013 104 2158
is_linear=0
shrinkage=0.05


Tree=14
num_leaves=31
num_cat=0
split_feature=7 7 7 8 8 5 7 7 8 8 8 5 6 8 0 8 8 0 7 0 5 10 6 0 0 8 5 0 10 7
split_gain=45396.2 4315.44 4278.44 1137 656.622 597 521.586 505.165 323.782 292.172 274.413 270.363 262.131 239.628 237.154 215.066 214.021 194.88 194.894 189.465 183.367 172.948 171.133 392.888 312.422 398.774 299.675 226.138 203.694 192.441
threshold=1.9285714285714288 0.46428571428571436 4.4642857142857153 86.233225358630293 96.992133271633534 1.0000000180025095e-35 8.071428571428573 1.0000000180025095e-35 81.312663890174306 67.677001388246183 99.321301866419887 1.0000000180025095e-35 1.5000000000000002 96.992133271633534 1.0000000180025095e-35 99.560388708931058 99.321301866419887 2.5000000000000004 2.8452380952380958 1.0000000180025095e-35 1.5000000000000002 0.0040369530579727917 6.5000000000000009 5.5000000000000009 1.0000000180025095e-35 99.560388708931058 4.5000000000000009 5.5000000000000009 0.10263157894736843 9.4642857142857171
decision_type=2 2 2 2 2 2 2 2 2 2 2 2 2 2 2 2 2 2 2 2 2 2 2 2 2 2 2 2 2 2
left_child=1 4 5 11 7 8 12 -1 -2 -9 -7 -3 19 -5 -10 21 -16 18 -18 -4 -12 -6 23 24 26 -26 -8 -24 -27 -29
right_child=2 3 6 13 15 10 22 9 14 -11 20 -13 -14 -15 16 -17 17 -19 -20 -21 -22 -23 27 -25 25 28 -28 29 -30 -31
leaf_value=-0.016314620499394566 0.0026029653279884429 -0.0068128401610415253 0.011159125648433028 0.0056552291733576732 -0.0098625108210434811 0.022498375546647287 -0.0017928618727169948 -0.013800033503237356 -0.0026541269087498516 -0.0078508303256696436 0.10388357882872112 0.00042549888445742468 0.038415023299725348 0.017231000293614459 0.017489956565058144 0.027068618915978528 0.13722450972609243 0.024878106432481124 0.044486272095316193 0.030638917460037465 0.041170514509181508 0.0062515374141572438 0.044815824922116082 0.017375207987485177 0.042673426831337319 0.096297359751716327 0.039291945492791337 0.090848082876612807 0.05658106296930035 0.054678199014211816
leaf_weight=116575.61937999725 6641.822288274765 37610.124849677086 1515.7665817737579 22449.117601275444 3324.0341556072235 21786.422958850861 675.01856994628906 47782.112005352974 1402.4715330600739 36328.436938643456 139.45772171020508 19635.899101614952 13251.789499759674 5582.4659484624863 9118.7877217531204 714.8653746843338 99.658276319503784 336.9721531867981 131.28369760513306 7072.5230507850647 709.85084772109985 3336.4646874666214 14980.955564975739 1709.5344293117523 7341.9294190406799 532.50060081481934 1295.983020067215 433.10121750831604 819.92053604125977 2436.8781204223633
leaf_count=77673 3279 22121 437 11039 1916 7745 154 31069 627 22704 32 10577 2966 2494 3788 327 30 111 40 1883 154 1818 1725 247 1107 43 172 63 107 252
internal_value=-0.000134612 -0.00976275 0.0304207 -0.000289998 -0.0136453 0.0182037 0.0398926 -0.0141838 0.0113334 -0.0112305 0.0235853 -0.00433003 0.0340052 0.00796053 0.0165625 0.00100675 0.0193447 0.0491256 0.0845056 0.0272009 0.0514681 -0.00179045 0.0441465 0.0396279 0.0431947 0.0472693 0.0252214 0.047279 0.0722189 0.0601365
internal_weight=385772 293339 92432.6 85277.6 208062 40366.7 52065.9 200686 17731 84110.5 22635.7 57246 21840.1 28031.6 11089.2 7375.36 9686.7 567.914 230.942 8588.29 849.309 6660.5 30225.8 12374.9 10665.4 8694.35 1971 17850.9 1352.42 2869.98
internal_count=206700 181738 24962 46231 135507 15806 9156 131446 7875 53773 7931 32698 5286 13533 4596 4061 3969 181 70 2320 186 3734 3870 1830 1583 1257 326 2040 150 315
is_linear=0
shrinkage=0.05


Tree=15
num_leaves=31
num_cat=0
split_feature=7 7 7 8 8 11 11 7 0 8 7 8 7 5 8 6 0 11 8 0 11 11 7 11 0 5 7 7 7 10
split_gain=42267.2 4203.39 3714.92 1077.52 641.516 583.066 524.545 501.105 465.015 361.748 359.663 287.256 266.661 265.893 220.8 218.553 205.118 314.164 199.098 195.458 196.91 197.79 194.64 191.652 188.441 180.658 170.475 166.211 165.764 165.377
threshold=1.9285714285714288 0.46428571428571436 4.4642857142857153 86.233225358630293 96.992133271633534 0.12552521008403364 0.088562091503267992 1.0000000180025095e-35 1.0000000180025095e-35 99.321301866419887 13.61904761904762 67.677001388246183 0.92857142857142871 1.0000000180025095e-35 96.992133271633534 1.0000000180025095e-35 1.0000000180025095e-35 0.72233796296296304 99.560388708931058 5.5000000000000009 0.60158730158730167 0.70562632696390659 3.3095238095238098 0.41824148840723435 5.5000000000000009 1.0000000180025095e-35 11.61904761904762 0.30952380952380959 1.0714285714285716 0.0040369530579727917
decision_type=2 2 2 2 2 2 2 2 2 2 2 2 2 2 2 2 2 2 2 2 2 2 2 2 2 2 2 2 2 2
left_child=1 4 5 12 7 -2 -4 -1 -7 13 15 -9 -3 -10 28 16 23 -18 29 20 22 -22 -11 -8 -17 -14 -26 -20 -5 -6
right_child=2 3 6 14 18 8 10 11 9 19 -12 -13 25 -15 -16 24 17 -19 27 -21 21 -23 -24 -25 26 -27 -28 -29 -30 -31
leaf_value=-0.016174567985399801 0.0052090863668161789 -0.0075196081555019782 -0.001767305449395821 0.0012694981898932151 -0.0097141709975149763 0.0057342180982456938 0.02282662168138308 -0.013646774267305574 0.015690427623479646 0.12280695820139675 0.044365102762643584 -0.007717010952145738 -0.0039869812066335407 0.025703509907420936 0.016512468160074355 0.035898161652036416 0.030663046196738389 0.0843957947720676 0.01808398264972285 0.0060022025598870507 0.025372370881755292 0.082824109664580509 0.053278320195882037 -0.015227047946168215 0.051243982397412562 0.0043201867257643958 0.021184798157276141 0.1001354676683703 0.0098394301865504692 0.0060578407587152912
leaf_weight=114689.1630089283 7893.2427500486374 29703.072852253914 843.38019394874573 11475.639552116394 3291.4119020700455 4688.6017272472382 1469.9128320217133 47127.246982216835 11541.301704287529 179.49524426460266 15587.251280784607 36044.345047712326 16408.950198292732 15579.987412810326 5679.4909309148788 23300.839085578918 8063.2791855335236 281.52880024909973 666.46086978912354 236.77108526229858 557.75074744224548 204.82404661178589 229.17108654975891 426.98471021652222 3674.7478189468384 10886.997177362442 541.13891434669495 68.019191265106201 11100.792689085007 3357.3880084753036
leaf_count=77673 3536 17875 284 5931 1916 1815 382 31069 4895 43 1434 22704 9336 5211 2494 4298 1882 37 301 59 149 48 50 110 662 5487 67 26 5108 1818
internal_value=-0.000136367 -0.00961544 0.0287582 -0.000283474 -0.0134918 0.0174245 0.0373567 -0.0140318 0.0203271 0.0227254 0.0379753 -0.011077 -0.00424119 0.0214425 0.0077002 0.0353374 0.0291022 0.0324758 0.000979048 0.0474357 0.0558117 0.0408036 0.0838168 0.0142609 0.0376582 -0.000673665 0.0473857 0.0256827 0.00548332 -0.00174991
internal_weight=385799 290499 95300.2 85254.9 205244 41111.1 54189.1 197861 33217.9 28529.3 53345.7 83171.6 56999 27121.3 28255.9 37758.4 10241.7 8344.81 7383.28 1408.01 1171.24 762.575 408.666 1896.9 27516.7 27295.9 4215.89 734.48 22576.4 6648.8
internal_count=206700 181738 24962 46231 135507 15806 9156 131446 12270 10455 8872 53773 32698 10106 13533 7438 2411 1919 4061 349 290 197 93 492 5027 14823 729 327 11039 3734
is_linear=0
shrinkage=0.05


Tree=16
num_leaves=31
num_cat=0
split_feature=5 6 8 8 6 8 8 5 11 8 5 0 0 8 11 5 8 10 12 2 10 12 11 8 8 6 5 6 12 8
split_gain=25590 6847.75 3198.26 2799.7 1950.4 1584.88 742.445 677.187 609.446 515.344 481.514 446.653 470.978 352.501 352.072 338.955 333.256 317.983 316.713 281.517 281.666 247.948 241.989 239.793 223.704 220.185 218.479 218.285 220.327 204.415
threshold=1.5000000000000002 1.5000000000000002 96.382847447169539 95.503624865031625 1.0000000180025095e-35 92.002159494061416 62.825852228906378 5.5000000000000009 0.1306379520520114 99.321301866419887 1.0000000180025095e-35 1.0000000180025095e-35 2.5000000000000004 63.018664198673456 0.091022068238306872 4.5000000000000009 99.321301866419887 0.0040369530579727917 0.52097491909385119 11.500000000000002 0.10263157894736843 0.31096096096096099 0.050316455696202543 99.128489896652795 81.312663890174306 6.5000000000000009 8.5000000000000018 28.500000000000004 0.29534632034632041 53.57087768008639
decision_type=2 2 2 2 2 2 2 2 2 2 2 2 2 2 2 2 2 2 2 2 2 2 2 2 2 2 2 2 2 2
left_child=1 3 4 6 7 14 -1 24 -6 17 22 -11 19 -12 -3 -10 -7 -5 26 20 -13 -14 -8 -19 -2 -16 27 28 -4 -9
right_child=2 5 18 9 8 16 10 29 15 11 13 12 21 -15 25 -17 -18 23 -20 -21 -22 -23 -24 -25 -26 -27 -28 -29 -30 -31
leaf_value=-0.014917098525017393 -0.0016726877292643418 -0.0067893775309528009 0.017581858810936265 -0.0034864253930321949 0.010426529486142887 0.021471757119085364 -0.016176122953105485 -0.00080670609049264303 0.02214826615481677 -0.014062998831017807 0.082901954445986595 0.10990572352001607 0.0091678134003913541 -0.00022781993554485131 0.0042383862720430463 0.035170924786423412 0.041053443729989203 0.007935186701283058 0.0014510254205019057 0.011799175193634782 0.046741831632192407 0.063307953874036191 -0.0093288009112007571 0.06405506002804319 0.0094560432002329543 0.016494871705376456 0.041050046554063642 0.058650608492788248 0.034440874888280994 0.020609825719943665
leaf_weight=100891.16049051285 12095.915326595306 5537.728459239006 2546.5017111301422 9342.7117745876312 4681.499928355217 12934.919608831406 14636.301298260689 1261.3144050836563 7942.0946307182312 580.51693475246429 129.02480745315552 351.8017144203186 1303.0531493425369 10952.608594655991 13420.416842937469 13473.290682077408 2611.459109544754 11642.190825939178 616.43153619766235 206.12398242950439 354.19325661659241 252.44726514816284 108961.25351679325 193.50993251800537 7205.7102936506271 5040.6376428604126 18263.700194120407 731.3139910697937 8109.4797300100327 9551.2473978996277
leaf_count=67398 6621 3264 695 5189 1882 4278 9799 545 2639 208 64 100 480 6085 6924 2778 413 5724 182 62 101 55 69058 63 3146 1869 2086 78 1749 3165
internal_value=-0.000137735 -0.00705896 0.0238198 -0.0100094 0.016764 0.0123245 -0.011674 0.00809375 0.0267688 0.00617598 -0.00924445 0.0253981 0.0346815 0.00074007 0.00426804 0.0303414 0.0247611 0.0034094 0.0369236 0.0632075 0.0782168 0.0179544 -0.0101397 0.00885273 0.00248191 0.00758492 0.037661 0.0322255 0.030412 0.0181115
internal_weight=385821 299342 86478.5 259797 56211.1 39545.2 235570 30114.2 26096.9 24226.5 134679 3048.14 2467.62 11081.6 23998.8 21415.4 15546.4 21178.4 30267.4 912.119 705.995 1555.5 123598 11835.7 19301.6 18461.1 29651 11387.3 10656 10812.6
internal_count=206700 181134 25566 164386 20776 16748 152404 13477 7299 11982 85006 1006 798 6149 12057 5417 4691 10976 4790 263 201 535 78857 5787 9767 8793 4608 2522 2444 3710
is_linear=0
shrinkage=0.05


Tree=17
num_leaves=31
num_cat=0
split_feature=5 6 6 8 8 8 8 5 11 8 12 8 0 0 11 5 5 10 12 3 5 11 6 5 10 6 0 8 12 0
split_gain=23921.3 6542.2 2852.16 2703.54 1522.49 1448.16 736.367 558.153 508.504 471.56 434.471 406.604 404.95 419.26 321.848 308.22 306.59 299.67 290.916 374.326 270.424 257.319 255.68 253.178 223.75 215.619 228.153 209.813 201.216 281.863
threshold=1.5000000000000002 1.5000000000000002 1.5000000000000002 95.503624865031625 81.312663890174306 86.233225358630293 81.312663890174306 10.500000000000002 0.21174573725594137 99.321301866419887 0.46620405101275325 96.506247107820471 1.0000000180025095e-35 5.5000000000000009 0.043797953964194385 5.5000000000000009 5.5000000000000009 0.0040369530579727917 0.28114224137931038 3.5000000000000004 1.0000000180025095e-35 0.09699820788530468 14.500000000000002 1.0000000180025095e-35 0.99796957650882689 1.0000000180025095e-35 1.5000000000000002 99.128489896652795 0.44818627450980397 5.5000000000000009
decision_type=2 2 2 2 2 2 2 2 2 2 2 2 2 2 2 2 2 2 2 2 2 2 2 2 2 2 2 2 2 2
left_child=1 3 4 6 16 21 14 -6 15 17 28 -7 -11 18 -1 -4 -2 -5 -14 -20 -16 -3 -23 -8 -9 26 -21 -19 -10 -30
right_child=2 5 8 9 7 11 23 24 10 12 -12 -13 13 -15 20 -17 -18 27 19 25 -22 22 -24 -25 -26 -27 -28 -29 29 -31
leaf_value=-0.017138947649901922 -0.00036349813402158628 -0.0070081737971925467 0.016797731143345651 -0.0034118853971152256 0.017046905422525512 0.014915558629930291 -0.0075669734308323414 0.023076804922765828 0.03735208178432 -0.013910523010027424 0.022939274345022489 0.029075212405157383 0.02344058137757728 -0.010668466722730226 -0.012633134204553323 0.031716540492783087 0.013174913374719585 0.0076762233648968742 0.13271530511181009 0.095453922075589698 -0.0045389297111882859 0.0038621199973371649 0.030555064699946545 0.0043203291114003494 0.039348388374316111 -0.0050155527412183033 0.038091228627615881 0.058540086463750335 0.044332923988908791 0.085964786756908093
leaf_weight=38606.989832639694 13866.31366944313 5566.4379988908768 6780.4555878639221 9310.1957762241364 18609.629014015198 11610.316901564598 51140.370794296265 3678.0307729244232 19739.84255874157 572.41026151180267 5076.5629924535751 9000.1799786090851 1047.2376327514648 459.01366150379181 126950.09932160378 7073.9110641479492 5987.4994634389877 11734.94134581089 153.92469549179077 277.26235437393188 11231.948328495026 12897.599668622017 964.17163372039795 4909.1592271327972 4964.3447790145874 156.45730352401733 462.48842334747314 206.31082606315613 2303.2816336154938 493.70881962776184
leaf_count=26526 7481 3322 2244 5189 6631 4440 31801 725 2495 208 1216 2105 397 154 84752 1392 2241 5724 33 51 6831 6620 261 2494 810 31 132 63 274 57
internal_value=-0.000138409 -0.00693434 0.0226691 -0.00986088 0.0142508 0.0118665 -0.0115196 0.0219233 0.0322319 0.00598052 0.0361538 0.0210988 0.0241033 0.0326152 -0.0131029 0.0244151 0.00371941 0.00331235 0.0420879 0.0606837 -0.0119752 0.00207234 0.00571878 -0.00652581 0.0324235 0.0483122 0.0595911 0.00855501 0.0391305 0.0516815
internal_weight=385831 297258 88573.6 257219 47105.8 40038.7 232839 27252 41467.8 24380.2 27613.4 20610.5 3128.79 2556.38 176789 13854.4 19853.8 21251.4 2097.37 1050.13 138182 19428.2 13861.8 56049.5 8642.38 896.208 739.751 11941.3 22536.8 2796.99
internal_count=206700 181134 25566 164386 17888 16748 152404 8166 7678 11982 4042 6545 1006 798 118109 3636 9722 10976 644 247 91583 10203 6881 34295 1535 214 183 5787 2826 331
is_linear=0
shrinkage=0.05


Tree=18
num_leaves=31
num_cat=0
split_feature=7 7 7 8 8 11 8 11 7 11 6 11 7 7 8 9 12 8 7 8 8 12 11 9 7 10 12 8 11 9
split_gain=35496.9 3371.36 3148.08 913.544 495.402 494.321 474.46 323.362 305.738 285.702 250.444 237.29 232.362 227.239 188.186 187.636 181.969 161.685 160.208 148.685 145.143 183.26 180.192 176.954 132.26 129.199 206.327 195.255 169.389 135.782
threshold=1.6904761904761907 3.9285714285714293 0.30952380952380959 86.233225358630293 92.295233688107359 0.088562091503267992 81.312663890174306 0.1601526717557252 8.071428571428573 0.035875160875160884 1.0000000180025095e-35 0.72233796296296304 0.92857142857142871 1.0000000180025095e-35 99.745488199907456 0.95000000000000007 0.57841177704734614 81.628875520592331 0.73214285714285732 99.321301866419887 99.321301866419887 0.26620159932659937 0.60158730158730167 0.8500000000000002 1.0000000180025095e-35 0.53253313258610768 0.27730392156862749 99.745488199907456 0.72233796296296304 0.95000000000000007
decision_type=2 2 2 2 2 2 2 2 2 2 2 2 2 2 2 2 2 2 2 2 2 2 2 2 2 2 2 2 2 2
left_child=2 6 4 9 13 -3 10 -8 25 -4 -2 18 -11 -1 24 -12 17 -9 19 -5 21 -19 23 -22 -6 26 -7 29 -28 -27
right_child=1 5 3 11 14 8 7 16 -10 12 15 -13 -14 -15 -16 -17 -18 20 -20 -21 22 -23 -24 -25 -26 27 28 -29 -30 -31
leaf_value=-0.016192665247857754 0.0013664843312302848 -0.0007437216684744605 -0.0147655299319824 -0.00053565905972169771 -0.010118216648600287 0.0046377595552210887 0.0072987640738813482 0.057893584092185812 0.034713242631208556 -0.0068199690182984109 0.010585345749781068 0.094877762164468499 -0.00024983151767166086 -0.012215477190402004 0.022436120785920461 0.034543306518664503 0.001603385480161478 0.0049927796412203374 0.0078726484871748069 0.034805894745367313 0.087905267963777331 0.021071574301241552 0.02332843832173755 0.029226943120069456 -0.0017529522895891663 0.029284584682727557 0.025264508212265932 0.066527973039425703 0.073936349544569777 0.068368332040236859
leaf_weight=99066.760616064072 9579.7984131574631 1206.1176826953888 7720.7912200689316 11970.227820634842 15478.162171959877 1250.5504138469696 6388.5026482343674 294.96082615852356 34997.686173677444 38802.182858586311 6755.6862456798553 73.095122575759888 20602.59025657177 56339.141539216042 535.27544152736664 929.72223448753357 1263.5887472629547 1971.6957979202271 16641.227990269661 305.18908715248108 265.66837501525879 17510.573009967804 1036.1789824962616 248.81508564949036 6801.3465095758438 16134.501672267914 10889.576956748962 370.52345442771912 181.74341583251953 225.32769656181335
leaf_count=70104 4547 434 4901 6501 10033 315 2563 107 3844 24166 2962 25 11291 38348 223 379 489 726 7575 108 60 6234 270 56 4143 3508 2652 58 28 50
internal_value=-0.000138801 0.0236496 -0.00980736 -0.00251388 -0.0137408 0.0309686 0.0133217 0.0172308 0.0315658 -0.00571732 0.00676028 0.00490367 -0.00454133 -0.0147508 -0.00686065 0.0134836 0.0200394 0.0211317 0.00467623 0.000342996 0.0206161 0.0194443 0.0353386 0.0595272 -0.00756452 0.0277743 0.023889 0.0306358 0.0260635 0.0298229
internal_weight=385837 111501 274336 96115.3 178221 65256 46245.2 28980 64049.9 67125.6 17265.2 28989.7 59404.8 155406 22814.8 7685.41 22591.5 21327.9 28916.6 12275.4 21032.9 19482.3 1550.66 514.483 22279.5 29052.2 12321.9 16730.4 11071.3 16359.8
internal_count=206700 29282 177418 54567 122851 10889 18393 10505 10455 40358 7888 14209 35457 108452 14399 3341 7942 7453 14184 6609 7346 6960 386 116 14176 6611 2995 3616 2680 3558
is_linear=0
shrinkage=0.05


Tree=19
num_leaves=31
num_cat=0
split_feature=7 7 7 8 8 11 8 11 11 7 5 6 7 8 0 8 5 0 8 8 0 9 7 9 11 11 0 12 7 0
split_gain=33284 3073.64 2991 871.6 488.245 441.532 434.235 293.725 278.686 266.941 244.783 232.93 225.742 217.606 184.922 177.492 176.854 174.485 173.041 179.214 171.226 218.779 171.137 168.011 144.53 144.279 150.459 130.275 128.277 126.757
threshold=1.6904761904761907 0.30952380952380959 3.9285714285714293 86.233225358630293 92.295233688107359 0.088562091503267992 81.312663890174306 0.1601526717557252 0.035875160875160884 7.154761904761906 1.0000000180025095e-35 1.0000000180025095e-35 1.0000000180025095e-35 99.128489896652795 1.0000000180025095e-35 99.745488199907456 1.5000000000000002 2.5000000000000004 81.628875520592331 99.321301866419887 1.0000000180025095e-35 0.75000000000000011 0.73214285714285732 0.95000000000000007 0.30813186813186816 0.60158730158730167 2.5000000000000004 0.26484694072292841 1.0000000180025095e-35 1.0000000180025095e-35
decision_type=2 2 2 2 2 2 2 2 2 2 2 2 2 2 2 2 2 2 2 2 2 2 2 2 2 2 2 2 2 2
left_child=1 4 6 8 12 -4 11 -8 -3 29 -10 16 -1 22 24 28 -2 20 -16 27 -15 -22 -5 -13 -9 26 -21 -20 -6 -7
right_child=2 3 5 13 15 9 7 14 10 -11 -12 23 -14 17 18 -17 -18 -19 19 25 21 -23 -24 -25 -26 -27 -28 -29 -30 -31
leaf_value=-0.016051677039481904 -0.0044331915778636063 -0.014615831240369533 -0.00072580187932746087 -0.00061427387358978334 -0.009968611176993351 0.016572994493608793 0.0070651228059838717 0.017296091257912354 -0.0066814826935018409 0.032302594589151669 0.00018643355345627837 0.010212447008500089 -0.012060448814183958 0.006020050531338493 0.061122223797118784 0.021387475432700587 0.0093270068244426987 0.0095870801246997431 0.0043131224393955191 0.099009965726042592 0.11333381301168646 0.025953740792852859 0.0072799804831212636 0.032527400287743036 -0.0039438679279966546 0.026171399019304587 0.039838811936906006 0.020291451743727228 -0.0017124651403827669 0.027129875550225054
leaf_weight=97475.523952960968 5574.6023105382919 7607.6271404027939 1205.2209968566895 11887.264197945595 15322.340536475182 3267.9375760555267 6435.3013999462128 1853.9902496337891 39913.967383742332 40949.130824327469 19221.929610610008 6827.5773478746414 55655.119253396988 137.76642990112305 264.6841881275177 547.42068123817444 4018.2956498861313 568.0440491437912 1381.1497030258179 161.90346097946167 158.14644742012024 130.94931828975677 16250.771070957184 962.39904606342316 1410.0761185884476 954.88952231407166 319.32293081283569 16704.078550457954 6789.4345144033432 21888.352739572525
leaf_count=70104 2930 4901 434 6462 10033 816 2563 674 24750 4644 10707 2962 38348 56 91 223 1617 213 497 32 47 46 7385 379 530 232 67 5819 4143 4995
internal_value=-0.000139313 -0.00965974 0.0225127 -0.00245829 -0.0135874 0.0292654 0.0128145 0.0165098 -0.00560792 0.0298122 -0.00444909 0.00654644 -0.0146011 0.00475752 0.0191467 -0.00673727 0.00133071 0.0277385 0.0209657 0.0204212 0.0518934 0.073754 0.00394495 0.0129693 0.00812043 0.037422 0.0597463 0.0190712 -0.00743356 0.0257585
internal_weight=385845 271666 114179 95876.5 175790 67310.6 46868.3 29485.4 66743.5 66105.4 59135.9 17382.9 153131 29132.9 23050.1 22659.2 9592.9 994.906 19786 19521.3 426.862 289.096 28138 7789.98 3264.07 1436.12 481.226 18085.2 22111.8 25156.3
internal_count=206700 177418 29282 54567 122851 10889 18393 10505 40358 10455 35457 7888 108452 14209 7942 14399 4547 362 6738 6647 149 93 13847 3341 1204 331 99 6316 14176 5811
is_linear=0
shrinkage=0.05


Tree=20
num_leaves=31
num_cat=0
split_feature=7 7 7 8 8 8 11 6 7 11 7 11 5 5 8 11 5 8 7 12 6 7 8 3 5 12 8 3 11 11
split_gain=31249.1 3093.5 2639.74 713.989 485.88 480.984 362.172 343.521 266.244 233.285 224.154 218.008 209.196 182.642 167.541 166.162 158.104 140.693 139.901 128.848 127.337 124.374 115.839 113.68 111.566 107.884 156.88 138.679 140.306 135.138
threshold=1.5357142857142858 3.7738095238095242 0.30952380952380959 81.096714484035189 95.03316365879995 92.295233688107359 0.088562091503267992 1.0000000180025095e-35 7.154761904761906 0.72233796296296304 1.0000000180025095e-35 0.035875160875160884 1.5000000000000002 1.0000000180025095e-35 99.745488199907456 0.1226279985678482 19.500000000000004 97.439457041493156 0.73214285714285732 0.25631091617933727 1.0000000180025095e-35 1.0000000180025095e-35 67.677001388246183 29.500000000000004 15.500000000000002 0.27216631805076608 98.496066635816774 24.500000000000004 0.43019480519480524 0.72233796296296304
decision_type=2 2 2 2 2 2 2 2 2 2 2 2 2 2 2 2 2 2 2 2 2 2 2 2 2 2 2 2 2 2
left_child=2 4 5 11 7 10 -3 12 20 16 -1 -4 -2 -13 21 -9 19 18 -5 -6 23 -7 -12 -8 -22 26 -10 29 -29 -27
right_child=1 6 3 17 9 14 8 15 25 -11 22 13 -14 -15 -16 -17 -18 -19 -20 -21 24 -23 -24 -25 -26 27 -28 28 -30 -31
leaf_value=-0.015909644882810797 -0.00048718172143607597 0.0012194501881626428 -0.014412154745233606 -0.0019338122531479464 -0.0056741395369126956 -0.009819730606374073 0.018467346345750282 0.005079007688849977 -0.0027520816765217154 0.082000141717013433 -0.013689595235401303 -0.007142747879810638 0.0098613826876796859 -0.00070500637534197516 0.020409510862366059 0.016300738954501171 0.078631482789058002 0.011579861058147367 0.0050958870549624473 0.019375610402463248 0.025443399022797721 -0.0016728444603424379 -0.0089535429702633836 0.054437642217244855 0.0400596296989486 0.031905344401368572 0.026562934086797163 0.027451973176663338 0.0052090267500045856 0.04643850454137366
leaf_weight=95923.368937969208 11352.766934633255 1286.0519025325775 7137.2957834005356 13452.452817320824 535.10482239723206 15170.35677754879 8933.72452044487 4380.05901491642 534.48846840858459 147.89934968948364 34273.906517863274 34336.890260338783 8570.0330749750137 16222.260056972504 559.25473380088806 13362.50777900219 109.70344042778015 4189.8835693597794 14935.596562385559 12624.173076868057 16920.726461172104 6777.8177728652954 20714.018460869789 225.18854784965515 1414.7258982658386 29853.02997469902 3123.0420567989349 6293.8447902202606 798.98018765449524 1690.1047945022583
leaf_count=70104 5693 466 4684 7593 186 10033 2360 1986 116 34 24326 21592 3257 9182 223 5091 25 1808 7124 4178 3651 4143 14022 50 245 3341 347 676 76 88
internal_value=-0.000139571 0.0207665 -0.00982432 -0.00289059 0.011381 -0.0134337 0.027512 0.00847056 0.0279965 0.0195514 -0.0144507 -0.00623193 0.00396438 -0.00507715 -0.00661528 0.0135305 0.0188553 0.00302701 0.00176467 0.018357 0.0241662 -0.00730389 -0.0119055 0.0193517 0.0265712 0.0304866 0.022279 0.0312636 0.0249464 0.032684
internal_weight=385849 122156 263693 90274.4 51082.2 173419 71073.9 37665.4 69787.9 13416.9 150911 57696.4 19922.8 50559.2 22507.4 17742.6 13269 32577.9 28388 13159.3 27494.4 21948.2 54987.9 9158.91 18335.5 42293.5 3657.53 38636 7092.82 31543.1
internal_count=206700 31866 174834 51983 20450 122851 11416 16027 10950 4423 108452 35458 8950 30774 14399 7077 4389 16525 14717 4364 6306 14176 38348 2410 3896 4644 463 4181 752 3429
is_linear=0
shrinkage=0.05


Tree=21
num_leaves=31
num_cat=0
split_feature=7 7 7 11 11 11 11 0 7 11 7 7 7 12 11 11 6 0 0 9 12 6 11 11 11 9 7 7 12 11
split_gain=29391.4 2790.36 2557.07 492.076 432.234 325.128 313.365 310.851 283.876 268.823 252.087 233.38 149.014 135.941 201.132 131.016 123.181 151.026 120.508 115.312 105.757 105.749 111.229 118.764 104.541 163.119 183.574 113.324 102.892 100.116
threshold=1.4642857142857146 3.7738095238095242 0.30952380952380959 0.10063291139240509 0.1226279985678482 0.088562091503267992 0.10063291139240509 1.0000000180025095e-35 0.92857142857142871 0.72233796296296304 1.0000000180025095e-35 6.154761904761906 2.7738095238095242 0.54064064064064077 0.55782585470085488 0.035875160875160884 1.0000000180025095e-35 1.0000000180025095e-35 1.0000000180025095e-35 0.40000000000000008 0.45620325770059583 16.500000000000004 0.09640969564425006 0.21457142857142861 0.59329913306291271 0.75000000000000011 2.2261904761904767 1.7738095238095239 0.38247393894266574 0.045614596670934711
decision_type=2 2 2 2 2 2 2 2 2 2 2 2 2 2 2 2 2 2 2 2 2 2 2 2 2 2 2 2 2 2
left_child=2 4 6 15 29 -3 -1 -6 13 12 28 16 24 14 -5 -4 17 -7 -10 -14 -12 22 -18 -24 -9 26 27 -26 -8 -2
right_child=1 5 3 8 7 11 10 9 18 -11 20 -13 19 -15 -16 -17 21 -19 -20 -21 -22 -23 23 -25 25 -27 -28 -29 -30 -31
leaf_value=-0.015880983820043281 -0.0093406411249865977 0.0011877044701739895 -0.014381640914665934 -0.0019457875995145457 0.0025305240351433402 0.00093309440105258869 -0.010389672567741912 0.01171229982026512 -0.0049381438677207814 0.082399649683138176 -0.0048543874243355606 0.028425843157685912 0.0056761258878102148 -0.0078472200027175209 0.023701423857509125 -0.006452744591867292 0.06909287185806938 0.020164178081776896 0.0054201309516377204 0.021054041800167289 -0.010371166543346945 0.012027130956833824 0.020518991272786367 0.030219505476444405 0.061868504044913952 0.00021351857619088282 0.077957004022175896 0.0048844429265729478 -0.014677248280826276 0.0040362194715437196
leaf_weight=69052.364752054214 1656.0541239976883 1287.6211357116699 7188.2370707988739 29084.303221464157 5811.4482811689377 1216.8916411399841 20177.162413954735 22470.301934957504 3272.8169815540314 147.34831666946411 14455.65792131424 49878.783105611801 1378.4448761940002 10667.148631334305 785.07024753093719 18931.766681671143 150.65670776367188 6338.7013549804688 19765.683772206306 10541.960290908813 21769.805822253227 1424.4474585056305 5711.35520362854 7050.1120283603668 126.87754368782043 337.42254996299744 238.35868740081787 279.33235549926758 45651.029030442238 9002.1006933450699
leaf_count=50860 865 466 4781 16902 2310 372 13818 9259 1648 30 9439 5742 435 6565 340 11753 42 1669 9834 3226 15170 317 1349 1459 46 117 59 83 33564 4180
internal_value=-0.000139572 0.0197895 -0.00969512 -0.00285703 0.0109355 0.0260902 -0.0132797 0.0132507 -0.000483226 0.0150046 -0.0115196 0.0265369 0.0147238 -0.00300203 -0.00127169 -0.00863478 0.0222332 0.0170669 0.00394865 0.0192758 -0.00816971 0.024956 0.0263823 0.0258781 0.0124102 0.028379 0.0431232 0.0226831 -0.0133631 0.00195774
internal_weight=385849 125048 260801 89695 51989.6 73058.6 171106 41331.5 63575 35520 102054 71770.9 35372.7 40536.5 29869.4 26120 21892.2 7555.59 23038.5 11920.4 36225.5 14336.6 12912.1 12761.5 23452.3 981.991 644.569 406.21 65828.2 10658.2
internal_count=206700 32026 174674 51823 20610 11416 122851 15565 35289 13255 71991 10950 13225 23807 17242 16534 5208 2041 11482 3661 24609 3167 2850 2808 9564 305 188 129 47382 5045
is_linear=0
shrinkage=0.05


Tree=22
num_leaves=31
num_cat=0
split_feature=5 8 11 11 8 5 5 0 8 0 8 8 12 11 11 11 9 11 12 9 12 3 12 12 11 11 8 0 8 8
split_gain=17743.7 4969.54 1776.45 1024.97 883.481 856.32 618.703 428.353 352.534 346.154 344.73 333.949 517.682 297.469 278.401 282.322 277.621 265.768 260.681 247.352 235.527 234.14 230.382 250.239 224.438 224.435 221.361 212.248 184.283 171.458
threshold=1.5000000000000002 92.989356779268874 0.13337825696316266 0.10063291139240509 99.321301866419887 8.5000000000000018 1.0000000180025095e-35 1.0000000180025095e-35 81.312663890174306 1.0000000180025095e-35 85.392565170445792 96.992133271633534 0.30376200394202985 0.4509160224504925 0.41458885941644569 0.35173201370384471 0.95000000000000007 0.24934554973821993 0.31096096096096099 0.95000000000000007 0.28114224137931038 3.5000000000000004 0.27011705685618731 0.26620159932659937 1.0000000180025095e-35 0.37745475548710056 65.548357242017588 1.0000000180025095e-35 74.271170754280448 49.830325466604982
decision_type=2 2 2 2 2 2 2 2 2 2 2 2 2 2 2 2 2 2 2 2 2 2 2 2 2 2 2 2 2 2
left_child=1 3 26 24 7 10 8 25 17 18 16 12 -9 -14 15 -13 27 19 -6 29 -11 -22 23 -16 -1 -3 -2 -4 -18 -5
right_child=2 4 5 6 9 -7 -8 11 -10 20 -12 14 13 -15 22 -17 28 -19 -20 -21 21 -23 -24 -25 -26 -27 -28 -29 -30 -31
leaf_value=-0.018204211815003157 -0.0030059770722977463 -0.000348914277144555 -0.0075076479038775901 -0.013193593152995856 -0.020225652299224212 0.026968964410394605 0.0031105024107870799 -0.0073055462322342505 -0.0036962542512145331 0.015873244389230993 0.019657852207893865 0.013372752554056247 0.010007289782560259 -0.0089055129800306755 0.0053431249883057084 0.034727068250300218 0.038648948890010922 -0.014547019059821515 0.042599772035439652 0.0023300451556030675 0.073860914671362937 0.032214701210036424 -0.0054291587686722265 0.039511914852908878 -0.012335632623712232 -0.019842829259214059 0.0085593761628963774 0.010432827690959561 -0.0024540139059650965 -0.0074246633885387521
leaf_weight=21109.265543699265 7345.3642361164093 4135.9701247215271 1962.8652096986771 17656.909192800522 673.3841609954834 37003.195221424103 13921.017762303352 8157.5150674581528 34588.067069530487 2214.8511403799057 29882.808332562447 7284.9555077552795 17063.972092270851 2367.5324236154556 1993.5444232225418 1965.3661187887192 1252.3981808423996 21080.023678660393 218.74848771095276 5215.5227344036102 377.95047378540039 3152.8312401771545 3079.8800255060196 732.81217062473297 71388.365145564079 2296.2292876243591 9473.281550526619 10297.176654696465 348.59943819046021 47605.225549221039
leaf_count=15678 3833 2101 875 12426 217 4735 7336 4881 20632 629 7371 2770 7833 1441 940 518 408 14863 33 3163 54 486 1516 218 50447 1241 3795 4399 150 31711
internal_value=-0.000139339 -0.00637706 0.0182914 -0.00959026 0.00703527 0.0213706 -0.00689282 0.00471975 -0.00799675 0.0241556 0.0166349 0.00653389 0.00326525 0.00770296 0.0125232 0.0179098 0.0101176 -0.00962137 -0.00482103 -0.00814809 0.0286548 0.0366727 0.00394152 0.0145273 -0.0136749 -0.00730804 0.00350833 0.00756051 0.0296992 -0.00898547
internal_weight=385846 288280 97565.7 232564 55715.5 80747 140067 49077.8 126146 6637.77 43743.8 42645.6 27589 19431.5 15056.6 9250.32 13861 91557.7 892.133 70477.7 5745.63 3530.78 5806.24 2726.36 92497.6 6432.2 16818.6 12260 1601 65262.1
internal_count=206700 181134 25566 156256 24878 17938 90131 23459 82795 1419 13203 20117 14155 9274 5962 3288 5832 62163 250 47300 1169 540 2674 1158 66125 3342 7628 5274 558 44137
is_linear=0
shrinkage=0.05


Tree=23
num_leaves=31
num_cat=0
split_feature=7 7 7 8 8 8 11 7 11 6 7 11 7 8 8 5 8 12 5 7 12 8 11 12 8 8 12 7 8 12
split_gain=26493.2 2462.54 2286.86 626.47 458.01 405.944 308.505 222.143 219.141 211.532 196.514 171.069 170.79 154.859 152.955 151.322 143.784 126.799 117.424 116.293 115.183 111.34 110.164 99.5582 97.7152 169.552 177.901 148.255 141.56 127.626
threshold=1.4642857142857146 0.30952380952380959 3.6904761904761911 75.281505475859959 92.295233688107359 81.312663890174306 0.088562091503267992 1.0000000180025095e-35 0.1601526717557252 1.0000000180025095e-35 6.154761904761906 0.72233796296296304 0.73214285714285732 81.628875520592331 99.745488199907456 1.0000000180025095e-35 99.321301866419887 0.57841177704734614 1.5000000000000002 1.0000000180025095e-35 0.25631091617933727 67.677001388246183 0.093603971962616841 0.48180288461538462 62.016041955884624 77.348449791763088 0.45844191440016874 6.6190476190476195 94.454727749498701 0.27216631805076608
decision_type=2 2 2 2 2 2 2 2 2 2 2 2 2 2 2 2 2 2 2 2 2 2 2 2 2 2 2 2 2 2
left_child=1 4 5 15 7 9 -4 -1 -7 18 22 13 16 -10 19 -3 -5 20 -2 -6 -15 -9 -8 -11 -12 27 28 -26 -27 -30
right_child=2 3 6 12 14 8 10 21 11 23 24 -13 -14 17 -16 -17 -18 -19 -20 -21 -22 -23 -24 -25 25 26 -28 -29 29 -31
leaf_value=-0.015527636894391192 -0.0043698869812214139 -0.0087667766916603648 0.00020426983009492496 -0.0021932397076464124 -0.0094756890352629859 0.0058772583624895069 0.058483797443570865 -0.013257845618994327 0.048448553526023931 0.0036036088482930793 0.0086185544836209597 0.065030708698396805 0.0046447539319677423 -0.0043071839981076035 0.019112290908560852 -0.0026131186331838471 0.029264982849287552 0.00043233052419803554 0.0060431982926629439 -0.0015564772870114722 0.016595886532283232 -0.0085439894886420436 0.020106111723698646 0.014615686147495907 0.070265865557745819 0.018664700825946231 0.016949695475899956 0.032719635492762189 0.019483496651747645 0.028582120872055368
leaf_weight=91983.89595079422 6544.6759086847305 31237.376579523087 1374.1567069292068 20681.634281635284 14830.420928478241 7053.8756873607635 188.44584012031555 32995.08747792244 352.08471620082855 3348.2369776964188 811.71210336685181 175.82912087440491 22209.390462994576 679.75561892986298 575.76477599143982 14687.51570212841 369.72507691383362 1397.3780760765076 4617.3833833932877 6743.9277169704437 21618.508633732796 20193.087645173073 24240.366387367249 5303.5938204526901 278.14252686500549 5259.3502233028412 5784.0117745399475 4802.8719305992126 4399.4098262786865 31097.301965713501
leaf_count=70104 3545 20433 504 12023 10033 2791 52 24326 116 1493 157 34 10737 242 223 8514 116 528 1856 4143 7225 14022 5654 2244 50 765 867 614 543 2746
internal_value=-0.000138654 -0.00944182 0.0183133 -0.00273154 -0.0130185 0.0100857 0.0236863 -0.0140403 0.013633 0.00448603 0.0241061 0.0158914 0.00158613 0.0155321 -0.00632146 -0.00679874 -0.00164074 0.015043 -6.233e-05 -0.00700022 0.0159587 -0.0114682 0.0204022 0.010354 0.0258318 0.0261024 0.0251556 0.034775 0.0263202 0.0274545
internal_weight=385835 256508 129327 89185.6 167322 51091.3 78235.8 145172 31277.4 19813.9 76861.6 24223.6 43260.7 24047.7 22150.1 45924.9 21051.4 23695.6 11162.1 21574.3 22298.3 53188.2 24428.8 8651.83 52432.8 51621.1 46540.1 5081.01 40756.1 35496.7
internal_count=206700 174674 32026 51823 122851 20074 11952 108452 10936 9138 11448 8145 22876 8111 14399 28947 12139 7995 5401 14176 7467 38348 5706 3737 5742 5585 4921 664 4054 3289
is_linear=0
shrinkage=0.05


Tree=24
num_leaves=31
num_cat=0
split_feature=5 6 8 11 8 6 8 11 8 12 5 11 5 8 8 10 8 8 11 3 3 11 10 11 5 8 8 11 12 12
split_gain=15748.3 4959.33 2191.22 1492.99 837.197 788.506 575.324 473.452 397.918 357.417 305.357 296.289 227.963 215.759 201.293 184.445 193.997 181.627 182.488 180.717 210.176 195.324 181.018 174.617 171.211 165.103 159.488 150.176 143.834 146.428
threshold=1.5000000000000002 1.5000000000000002 90.968687336109838 0.13337825696316266 84.667592164121558 1.0000000180025095e-35 96.992133271633534 0.10063291139240509 94.454727749498701 0.30376200394202985 1.0000000180025095e-35 0.4509160224504925 28.500000000000004 96.274872744099966 65.548357242017588 0.99718517369727067 99.128489896652795 61.0596945858399 0.24934554973821993 16.500000000000004 10.500000000000002 0.66198800769107369 0.90817134015782852 0.09699820788530468 8.5000000000000018 97.647693968841594 99.745488199907456 1.0000000180025095e-35 0.51401058201058214 0.54718253968253983
decision_type=2 2 2 2 2 2 2 2 2 2 2 2 2 2 2 2 2 2 2 2 2 2 2 2 2 2 2 2 2 2
left_child=1 2 7 14 23 8 9 27 12 -4 17 -11 -5 -6 -2 -8 25 -9 28 20 -10 -22 -21 -3 26 -17 -7 -1 -19 -30
right_child=3 4 6 5 13 24 15 10 19 11 -12 -13 -14 -15 -16 16 -18 18 -20 22 21 -23 -24 -25 -26 -27 -28 -29 29 -31
leaf_value=-0.018037145105815864 -0.0029548346125695211 -0.0062009700453556794 -0.010124030235520802 0.0076296227808953848 0.011297759877900399 0.01963845364728942 0.0031719266494781399 -0.012988646881343194 0.017174675157629379 0.0028257031483374085 -0.00066657829053298583 -0.013425074575678916 0.042470580119988867 0.020791271639115625 0.0080438987870053852 0.025610101891588796 0.030135487487895903 -0.0080109257239612333 -0.012223841516349596 0.00073496482126320106 0.029946050215481898 0.07141342749532216 0.019825477133253961 0.0046005995043640648 0.026018908040919747 0.0054896855501853029 0.044943182082109775 -0.013030673111738313 0.0057901857954638187 -0.007509928412551891
leaf_weight=19677.212955117226 7328.1907459497452 5174.9233607053757 12152.135018706322 17850.272613883018 12857.410723567009 24062.399173021317 8072.8706793785095 34043.831012964249 4315.0713554620743 19533.56057369709 9551.9178097248077 3275.1118484735489 482.17049884796143 11196.711735963821 9621.8301473855972 1314.449486374855 1503.6909236907959 35574.261188030243 21831.87260222435 1969.5488487482071 3364.6542906761169 310.15341758728027 3360.2254167795181 13508.386941790581 27695.193513870239 4545.0121687650681 639.22080183029175 62732.061571598053 4244.0342774391174 4038.8382682800293
leaf_count=15150 3833 3244 7834 7048 4587 5242 3708 24907 896 10759 5627 2161 67 2316 3795 531 359 24287 15352 459 692 41 712 6601 2715 2038 66 46200 2706 2767
internal_value=-0.000138161 -0.00615345 -0.00892553 0.0168256 0.00954926 0.0195556 0.000351882 -0.0113646 0.0133246 -0.0031979 -0.00920678 0.000492244 0.00854599 0.0157168 0.00328869 0.00839173 0.0141147 -0.0100247 -0.00848863 0.0199016 0.0246583 0.0334459 0.0127708 0.00160877 0.0233197 0.0100033 0.0202933 -0.0142261 -0.00662926 -0.000695126
internal_weight=385827 284828 242091 100999 42737.4 84048.9 50396.8 191694 31652.1 34960.8 109285 22808.7 18332.4 24054.1 16950 15436 7363.15 99732.8 65689 13319.7 7989.88 3674.81 5329.77 18683.3 52396.8 5859.46 24701.6 82409.3 43857.1 8282.87
internal_count=206700 181134 164386 25566 16748 17938 27390 136996 9915 20754 75646 12920 7115 6903 7628 6636 2928 70019 45112 2800 1629 733 1171 9845 8023 2569 5308 61350 29760 5473
is_linear=0
shrinkage=0.05


Tree=25
num_leaves=31
num_cat=0
split_feature=7 7 7 8 8 8 11 7 8 6 11 5 11 8 7 8 7 0 7 10 0 11 12 5 10 8 7 11 9 11
split_gain=23885.9 2194.75 2051.85 555.099 437.636 369.666 255.671 203.395 194.614 187.358 186.342 167.277 159.36 157.272 151.434 145.266 134.381 130.532 130.274 119.125 114.672 111.078 110.499 105.516 102.183 145.412 157.083 142.042 101.283 99.9488
threshold=1.3809523809523812 3.6904761904761911 0.30952380952380959 65.039333641832499 90.428813820762016 81.312663890174306 0.088562091503267992 1.0000000180025095e-35 94.902051519358338 1.0000000180025095e-35 0.70562632696390659 1.5000000000000002 0.1601526717557252 96.992133271633534 6.154761904761906 81.628875520592331 1.0000000180025095e-35 1.0000000180025095e-35 1.0714285714285716 0.0040369530579727917 1.0000000180025095e-35 0.27757502027575026 0.44609520931765745 1.0000000180025095e-35 0.61332847336127838 99.560388708931058 2.9285714285714293 0.41824148840723435 0.95000000000000007 0.050316455696202543
decision_type=2 2 2 2 2 2 2 2 2 2 2 2 2 2 2 2 2 2 2 2 2 2 2 2 2 2 2 2 2 2
left_child=2 5 4 -4 7 9 -3 -1 18 11 12 -2 -7 16 -8 -14 -6 -15 -5 -19 21 -17 -21 -12 27 -26 -27 -22 -11 -9
right_child=1 6 3 8 13 10 14 29 -10 28 23 -13 15 17 -16 20 -18 19 -20 22 24 -23 -24 -25 25 26 -28 -29 -30 -31
leaf_value=-0.015368620364240538 -0.0047156364400613368 0.00026994987441947927 -0.0083191716938293293 -0.0028319374899523735 -0.011934421894355837 0.0055455055472009348 0.018848033109724133 -0.015411823955049376 0.0062582920331180555 0.0073043871856482969 0.024604267986951062 0.0068132350623589235 0.044201898965932788 -0.017703640358693134 0.023523106102431638 0.013694650477175503 -0.0033016449571457935 -0.0047831563898019583 0.0042053078655946586 0.014077076793087048 0.013790410911683277 -0.0038808460789337574 -0.012062668059201212 0.074870644262453032 0.016525455183672468 0.073689804916778345 0.013627873652550446 -0.0008794990780414965 0.022763789460542194 -0.010137736645023597
leaf_weight=86209.769595265388 7599.3248864412308 1370.560785651207 31456.514921545982 32926.726785182953 13726.417325615883 7893.0636757612228 25298.039075613022 11712.311607480049 10301.54918718338 8772.734489440918 260.95646572113037 5369.3607988357544 383.16027927398682 919.21763622760773 54936.292241811752 1796.2867687940598 6712.3071722984314 2783.5827015638351 8217.7891631126404 2413.4882814884186 8086.5515078306198 1799.6584708690643 485.64233231544495 174.0222225189209 11943.013917684555 234.9798846244812 202.82320070266724 2073.0891432762146 1205.0077518224716 38549.426397442818
leaf_count=67640 4243 504 20439 19563 10033 3140 5706 8976 4721 3902 68 2188 121 544 5742 634 4372 1626 4202 1246 2808 672 264 29 3910 51 33 700 473 28150
internal_value=-0.000137294 0.0164035 -0.00949455 -0.00308688 -0.0127433 0.00894844 0.0216833 -0.0138947 0.00011239 0.00402054 0.0121934 5.76052e-05 0.0117823 -0.00693214 0.022049 0.0136386 -0.00909932 -0.000222828 -0.00142639 0.00260481 0.0131905 0.00489866 0.00969833 0.0447144 0.0145133 0.0175629 0.0458646 0.010797 0.00917141 -0.0113667
internal_weight=385814 139399 246415 82902.6 163512 57794 81604.9 136472 51446.1 22946.4 34847.6 12968.7 34412.6 27040.7 80234.3 26519.6 20438.7 6601.93 41144.5 5682.71 26136.4 3595.95 2899.13 434.979 22540.5 12380.8 437.803 10159.6 9977.74 50261.7
internal_count=206700 34924 171776 48925 122851 22972 11952 104766 28486 10806 12166 6431 12069 18085 11448 8929 14405 3680 23765 3136 8808 1306 1510 97 7502 3994 84 3508 4375 37126
is_linear=0
shrinkage=0.05


Tree=26
num_leaves=31
num_cat=0
split_feature=7 7 7 8 8 11 0 11 8 7 8 8 5 7 0 8 8 11 0 11 11 5 0 7 9 7 5 8 11 8
split_gain=22557.3 2001.93 1989.71 533.955 431.39 342.866 254.445 232.528 218.561 208.917 184.14 173.079 163.02 136.92 134.539 142.704 306.939 168.955 132.936 148.106 204.164 127.013 126.081 125.17 124.795 122.677 118.845 102.33 99.5364 97.2108
threshold=1.3809523809523812 0.30952380952380959 3.6904761904761911 65.039333641832499 88.747493444393044 0.091022068238306872 1.0000000180025095e-35 0.088562091503267992 99.321301866419887 1.0000000180025095e-35 94.902051519358338 96.992133271633534 1.0000000180025095e-35 8.071428571428573 1.0000000180025095e-35 96.274872744099966 96.637359247262069 0.37586565096952912 5.5000000000000009 0.70562632696390659 0.60158730158730167 1.0000000180025095e-35 1.0000000180025095e-35 0.92857142857142871 0.8500000000000002 2.6904761904761911 1.0000000180025095e-35 99.745488199907456 0.10063291139240509 98.496066635816774
decision_type=2 2 2 2 2 2 2 2 2 2 2 2 2 2 2 2 2 2 2 2 2 2 2 2 2 2 2 2 2 2
left_child=1 4 5 -3 9 -2 26 -4 12 -1 23 21 25 14 15 -9 -17 29 19 20 24 -6 -13 -5 -10 -8 -7 -24 -11 -18
right_child=2 3 7 10 11 6 8 13 18 28 -12 22 -14 -15 -16 16 17 -19 -20 -21 -22 -23 27 -25 -26 -27 -28 -29 -30 -31
leaf_value=-0.015436130726004131 -0.0020734804817868126 -0.0081812485546073309 0.0002631753739122056 -0.0032762452905008275 -0.010152678807323713 -0.0061453604795441274 0.0051444590317985895 0.0047010199023434776 0.075683154705161043 -0.013684727919674695 0.0060643445510222358 -0.017576367745397371 0.013675068112090238 0.022943423089492914 0.019994606321263431 0.074223451102814336 0.010466848305051386 -0.0087888971682339948 -0.0027862439260133189 0.068205961503573373 0.0089953143115226956 0.0048043761743874506 0.00040693885835831761 0.00265134868727805 0.022321904499472481 0.013884964475348149 0.0068551070085648876 0.023659713204566252 -0.0091172206951720403 0.040447716664231553
leaf_weight=80984.681229710579 6613.7029269933701 31195.908262014389 1370.9308162927628 28033.19461107254 24481.169813513756 3077.5151671171188 14878.031091094017 3140.8433609008789 259.17195081710815 22558.137104988098 10366.22144973278 903.08734226226807 22523.438911795616 43620.111752986908 33401.844795942307 245.828697681427 535.46971726417542 533.03016018867493 267.65841388702393 279.46403765678406 629.71958327293396 1506.7334897518158 5177.0860923528671 13052.837986588478 189.81501698493958 5497.9784332513809 4099.8129606246948 520.73688793182373 25311.791957974434 546.13431930541992
leaf_count=64641 3400 20439 504 17020 17714 1457 6861 739 44 17354 4721 544 7484 3844 6517 48 102 122 59 47 142 941 2947 6745 37 2013 1428 189 18521 76
internal_value=-0.000136553 -0.0093486 0.0157309 -0.00301995 -0.0125884 0.00864593 0.0100171 0.0206853 0.0114254 -0.0138883 0.00010939 -0.00744907 0.0107435 0.0210266 0.0188494 0.0112013 0.0221752 0.0142508 0.02942 0.035767 0.0273629 -0.00928549 -0.000219023 -0.00139308 0.053124 0.00750288 0.00128073 0.00253206 -0.0112696 0.0256051
internal_weight=385802 244092 141711 82648.2 161443 58316.3 51702.6 83394.2 44525.3 128855 51452.3 32588.8 42899.4 82023.3 38403.2 5001.31 1860.46 1614.63 1625.83 1358.17 1078.71 25987.9 6600.91 41086 448.987 20376 7177.33 5697.82 47869.9 1081.6
internal_count=206700 171776 34924 48925 122851 22972 19572 11952 16687 100516 28486 22335 16358 11448 7604 1087 348 300 329 270 223 18655 3680 23765 81 8874 2885 3136 35875 178
is_linear=0
shrinkage=0.05


Tree=27
num_leaves=31
num_cat=0
split_feature=6 8 8 8 6 11 8 0 11 12 11 8 12 12 8 8 0 0 9 12 10 11 11 8 12 8 11 12 8 8
split_gain=11661.3 3807.72 1913.27 1089.53 711.502 608.165 497.548 413.456 409.656 383.641 373.171 368.335 551.306 475.403 433.116 317.443 731.87 316.866 300.053 211.757 206.98 203.884 202.366 199.265 240.766 376.926 184.028 288.835 202.878 194.063
threshold=1.0000000180025095e-35 86.233225358630293 84.667592164121558 96.506247107820471 10.500000000000002 0.10063291139240509 96.506247107820471 1.0000000180025095e-35 0.1023024594453166 0.27730392156862749 0.21401308615049075 61.0596945858399 0.53763157894736857 0.54718253968253983 70.507481104426972 99.321301866419887 5.5000000000000009 3.5000000000000004 0.95000000000000007 0.44818627450980397 0.99718517369727067 0.25282181357006978 0.41458885941644569 62.309116149930595 0.49693750000000003 62.016041955884624 0.4509160224504925 0.39055059523809527 86.557149467838983 92.002159494061416
decision_type=2 2 2 2 2 2 2 2 2 2 2 2 2 2 2 2 2 2 2 2 2 2 2 2 2 2 2 2 2 2
left_child=1 5 4 9 8 -1 -4 22 -2 -3 11 -7 23 14 17 20 -17 -14 21 -6 -9 -10 -5 24 25 -13 27 28 -11 -29
right_child=2 3 6 7 19 10 -8 15 18 26 -12 12 13 -15 -16 16 -18 -19 -20 -21 -22 -23 -24 -25 -26 -27 -28 29 -30 -31
leaf_value=-0.013584076271777726 -0.0055352147772456308 -0.011853579325665007 0.012992282815204516 0.0071343421253892399 0.002808806907765117 -0.0096645507329299694 0.020918693437720209 0.0034902158181858121 0.0052531837511730541 0.045496923156899051 -0.011744853901178914 0.0078800544450911992 0.16224802941064065 0.0068185902241792292 0.021327852103128944 0.032418812469332543 -0.0099564908671268895 0.058404000059352562 0.019981564617735995 0.027058380864718304 0.014283014184256277 -0.0086433791752275665 -0.014573440512383211 -0.004678193700902741 -0.0066700636544154424 0.08713653290610146 -0.0090160125160044895 0.00019783071604120118 -0.003270295122751528 0.0098628611016764022
leaf_weight=77433.114474654198 12534.952313661575 7614.2409895658493 37774.762652754784 2149.3193510770798 1159.6322547197342 28398.161342024803 41601.856337070465 7519.5587426424026 20889.256788849831 215.42472910881042 36306.562762022018 409.66917383670807 118.66752684116364 2203.9408094882965 451.71798276901245 4656.0515345335007 1304.3968360424042 192.83155477046967 3120.8973473310471 4025.0428881645203 10854.647357463837 3021.1506576538086 2145.1224445104599 31789.872808933258 622.27404844760895 236.67941915988922 4821.9048335552216 9521.6800320148468 21269.568902373314 11426.223829269409
leaf_count=59051 8197 5031 10793 762 333 20247 5374 3429 9822 53 25890 258 35 1272 197 849 233 45 1146 747 3713 1779 850 20664 435 61 3050 5100 12293 4991
internal_value=-0.000135727 -0.00612305 0.0124856 0.00268752 0.00421817 -0.0102522 0.0171466 0.0105945 0.00193597 -0.00143812 -0.00769094 -0.00540632 -0.00204966 0.0185961 0.0526061 0.0131187 0.0231453 0.097964 0.0054005 0.0216346 0.00986611 0.00349731 -0.00370894 -0.00390272 0.0155295 0.0369021 0.000240144 0.00129198 -0.00278132 0.00546971
internal_weight=385789 261662 124128 83498.1 44750.9 178163 79376.6 28629.1 39566.3 54869 100730 64423.8 36025.7 2967.16 763.217 24334.7 5960.45 311.499 27031.3 5184.68 18374.2 23910.4 4294.44 33058.5 1268.62 646.349 47254.8 42432.9 21485 20947.9
internal_count=206700 168509 38191 40354 22024 128155 16167 9836 20944 30518 69104 43214 22967 1549 277 8224 1082 80 12747 1080 7142 11601 1612 21418 754 319 25487 22437 12346 10091
is_linear=0
shrinkage=0.05


Tree=28
num_leaves=31
num_cat=0
split_feature=5 6 6 5 0 12 5 6 6 10 0 6 10 0 12 12 0 9 9 2 12 0 5 3 0 3 3 5 6 0
split_gain=12977.7 3223.74 1865.65 941.364 389.424 383.723 328.949 247.357 192.785 189.612 185.205 181.019 169.344 136.918 123.822 163.112 164.47 144.233 232.632 290.853 287.818 145.625 122.616 111.12 102.303 101.787 172.224 158.429 111.556 101.331
